function [y1] = Fcn_Red_Qr_6(x1)
%FCN_RED_QR_6 neural network simulation function.
%
% Auto-generated by MATLAB, 06-Sep-2021 10:49:57.
% 
% [y1] = Fcn_Red_Qr_6(x1) takes these arguments:
%   x = 2xQ matrix, input #1
% and returns:
%   y = 1xQ matrix, output #1
% where Q is the number of samples.

%#ok<*RPMT0>

% ===== NEURAL NETWORK CONSTANTS =====

% Input 1
x1_step1.xoffset = [-116.063060960018;-116.229534617895];
x1_step1.gain = [0.00861222819736077;0.00860324037730651];
x1_step1.ymin = -1;

% Layer 1
b1 = [-7.1131328030345271074;-7.1746241418950003066;6.7629384146146449552;6.1877046858744044755;4.9865241053182494113;4.7837524750202398138;4.3061798184463464523;-3.8808095673179607843;3.3157681959143960881;-2.793597896317447038;-2.5289034729577162253;2.4427087823174233883;-1.8700986205502021509;-0.89846769019288097446;0.41625419037243605036;0.30772977499063414175;-0.68984737433885479074;-1.2735060309861976346;-1.6087825470263947825;2.0568670490471023804;2.9449747335788152292;-3.4508465004449919711;-3.8213095898110966964;4.0900111698422545459;-4.7581718555724963338;5.1638921428675708114;5.6907735318251084777;5.9374875523355576945;6.8429094749668317732;7.2972469268787332197];
IW1_1 = [0.70043108777112661478 -7.8776085368512331897;6.9344155301193888263 3.1505382004930546636;-5.7568374787160729866 4.4384385024895873784;-7.0845059600472088945 -2.2581102679261038091;-3.2672810849762594643 6.9538875320189257323;-5.185529045160797601 -5.5506354913252922145;-2.8412007569382575767 -7.0320867230716066487;1.6426592508117665581 -7.6614347924822441271;-6.9136013210559079667 -2.3522689781985457458;3.316432930972026405 6.806252620311388668;-0.16059412810430231944 7.494897463896958989;-6.5022024576378045779 3.3891971344318725379;7.256338563916329143 0.83223852195429492973;2.6379813378722389849 7.1912126561654119428;2.4319412431290023946 -7.3641539428781639387;7.3426179597303926627 1.8499543675682603716;-7.3094625071034080577 1.658080543317805855;-5.1497011206381628767 5.5616620918514856342;-4.9970739973320368321 6.0186707096004443684;6.4858237171603452254 -3.1936155209269236899;4.8413581361266837533 -5.9201864909241814772;-2.2452963396999803258 -7.2111807705098325272;-6.165076946271774716 4.8128874227838540634;7.2392101747952191104 2.9796338765669472259;-6.116350721660991141 5.0003718771297700485;3.1606282775317038336 -7.2407230579980295104;2.1885899981444771889 -7.4595325852697413893;5.6798305428270481343 5.1432282237138604586;7.3073037818016359779 -2.6996377303173830775;1.6533544899707981468 7.7274232044354445037];

% Layer 2
b2 = [1.6692376322663597943;1.4837073044177169212;1.4529895932357255184;1.2476990873842832563;1.3394269200150354937;1.0418082486707884726;0.88810636133887066457;0.79787323247956953853;0.4690356428349873319;0.53501258709164678518;0.49110652809937715979;-0.48465206788871667554;0.11074762780373868798;-0.019390007202894493643;0.036133674381063518588;0.008108672314432335132;0.32747382274350889109;-0.19807281877284405036;0.61987851641066615827;-0.43928617784327106399;0.63870199166765306842;0.54813271366661331374;0.86205387050253956538;-0.87721314275142725503;1.1091963637925426056;-1.1694321923942581076;1.1585625139598960676;-1.4129413006613269488;-1.5032967255989333477;1.5646534795554323249];
LW2_1 = [-0.12845983424213433532 -0.35418022005937732644 -0.30340247533240971567 0.093916165532905646063 0.17014777910424272456 -0.64791588424398760537 -0.68285310313671465643 -0.089043142288277032925 -0.28842210211284513566 0.3768507462267128294 -0.43612922070030862853 -0.26815816350353566255 -0.19738413607690630247 0.13484081663049152233 0.40255701433663854116 -0.4028409391318312216 0.48659453341902170198 -0.17315664440873707042 0.12639365032991586868 -0.60069789027523734504 -0.28277543093619161851 0.22603332473413928483 -0.39427776491448757179 -0.29572690725320677219 -0.52064832849620867883 -0.023833703890855546803 -0.11727295496601429503 0.54238777460694331811 -0.029363935540961776105 -0.083996292585387072327;-0.010982346715323092895 0.30720022349878295387 -0.26197382202293767461 0.096092283956503432574 -0.061661004325856069719 0.22026771221562932435 0.41730671797235474596 0.13708112696564833666 -0.41953944076325194734 -0.34192434847131142339 -0.23594732109214125448 -0.063565401551781405831 -0.16483122090211679844 -0.28440912879603896801 -0.12646880286624065381 -0.14694338470320672529 0.13555929108573080977 0.0069878472368782957799 -0.40357473692296802481 -0.39268202885521713563 0.46102153852949173674 -0.20209243918816335861 -0.32744810132093843391 0.53072584128549282756 0.50983500413897742121 -0.24829087463716567608 -0.033745291019001852351 0.2528532278680247769 -0.47530792265994925572 0.15854668196205326525;0.082945657050523036169 -0.21391178396193957778 -0.30975150051002459106 0.36862348576450376658 0.029735010495701923172 0.0064974370682368562738 0.32121879827959476383 -0.19440380065235596252 0.27558337239616914616 0.40732763229562962692 0.28904185437830542948 -0.34563022240359747572 0.79925619861238628161 -0.010163861987846379079 0.3137902078582904819 -0.15388890424158863102 0.007133333929363933415 0.38821989249588867432 0.53352493843816273245 0.27389651650865393107 0.12349199548544047278 0.17734112780552563349 -0.41241836878776755304 -0.52925436331002184698 -0.27097638880695362751 0.079853506607774987769 -0.12586814001413260122 0.075108740863706904833 0.32882060391244805064 -0.24640399399404522285;-0.21954564541609281059 -0.096130447530592133543 0.42851650152667936089 0.45589535363493322029 -0.037328923140879009812 -0.050377299940160810698 -0.10099394129835667644 0.58493355075019626277 0.020777987365856964014 0.48916360655682949998 -0.17084859007105540618 -0.084440137243893417796 -0.026358401760711854672 -0.48228812603279358484 0.25493703675969414668 -0.18820733808492301486 -0.15028248306482200336 0.1656579734576560381 0.27848978250616523988 -0.14525497533787506965 -0.043155395784431838102 -0.20625279068871416044 0.3364911679382831533 -0.038255584928638203257 -0.11769892733804096507 -0.073221518772770555206 -0.42393356780751967339 -0.73850801781736441498 0.36557718769902575184 -0.10683990084547052846;0.045473536901039682268 0.05875447046048887928 0.38781513114375720797 -0.15797204901069131222 -0.40541662523168692234 -0.077976577735559923776 -0.28300593078829189286 -0.027828844231677817705 0.32195289975869162413 0.57587401756613332271 0.2298165446841022308 0.0059842262031753667637 0.45518963730631367692 -0.43194586874503304585 -0.07354549666739879088 0.23594539402899863956 -0.36087649859251846873 -0.16939846591084409266 0.017936306228178558464 -0.44728376303073436038 0.0099208573241632760226 -0.41129495081823019831 0.76183537350351682171 0.18976357382300235166 0.41609531201554633695 -0.44300609442847616037 -0.023360081561512716086 0.2201683394971030161 0.054688710009656311961 -0.26028437618580224644;-0.59473873566642787569 -0.22478573786330507955 0.41493805733842087369 -0.35677859315127063988 0.065297771670247500841 0.38720926219824258752 0.019943676447285188513 0.31440445112287124241 -0.15717889780723606763 0.071394701176455674374 -0.33976554768607619694 -0.090050329517221208708 0.52180267364515919848 0.36875072372093514739 0.010190486409305662616 0.36671278979695764999 0.45618631750518379153 -0.098579001407163219239 0.38907699871755846432 0.37171409449360726107 -0.053783438510164774393 0.22686295671658462947 -0.13926583660980004775 -0.48281585726770442912 -0.46321095650356292062 0.16064128612832756504 0.010984124644255412531 -0.11172988451557291922 0.10014924567891102247 0.21966993292892661449;-0.2603833192548941633 -0.10900703818120321964 0.14907043269058092849 0.56064613254890494076 0.13091292303586163359 -0.18724231986346026591 -0.69132510563599380848 -1.111382234934115143 0.94020379311031443414 0.044453091578064068967 -0.092278929729351880096 0.39312228967513818123 -0.54502392564634749572 0.6474685167865283919 0.017331003976060174732 -0.062032613882486910273 -0.013343839465965977309 0.35422530164127408181 0.31835249167370655021 0.17000856086662188837 -0.32087731303399830152 0.3953987614649484561 0.20066959119735228168 -0.28292370358648288864 -0.24965286578005732587 0.30749261422891560613 -0.42852531345516181593 -0.11290721373900848568 -0.20532955848557729595 0.24939193980091622915;-0.45189631329949092597 0.31861083441853310649 -0.35008238663196539209 -0.4278869400897677977 -0.021351732311087352062 -0.52138288862926041034 -0.69245584531333481682 0.61838240178879055886 -0.363761224995256649 -0.051053055554618934075 -0.25497366123649556346 0.033255244854468443694 0.40470508485645473318 -0.24670520583987207153 0.42317905372271158448 0.13565063899566123795 0.27581315754729768264 0.44663102639672741523 -0.079315859817567196943 -0.25843420005384770688 -0.58405906143993757684 -0.53302806724507179048 -0.092808726179133174683 0.90821754787900377259 0.010600896093566621742 0.36449760095199373877 0.064010900244434842943 -0.017010155730360659865 0.11477171104911873534 -0.35319776961841481411;-0.33093696809778333501 0.11574363045371702241 -0.4565683382220763753 -0.12035258753142946686 -0.092319473391718920308 -0.31119214269118583571 -0.084235304731552218538 0.21651846733719745663 0.32939785146040079233 0.069885817650445117288 0.35811723450232929578 0.070137536128297442439 0.40736142936738983789 -0.45331467386490165161 -0.49342665778030692092 -0.46062882936508536824 0.071129516080984667159 -0.5125022764258208019 0.3591938281468832761 0.14109551838939782265 -0.56194604826053751179 -0.13613395016093585155 0.078997322931485508546 0.73966156708066121972 -0.63259700300951571261 0.16694347382299534743 0.021850756110215682759 -0.50923200016687519831 -0.50814213052276513416 -0.47180837424144411729;-0.42830582277912598865 -0.11916427291776622577 0.28623912237375209733 -0.29090543324568129968 -0.0051193456212794150387 -0.28277465206014434917 0.46746730868397973202 -0.097244994243695800917 -0.47088373242062192547 -0.14100402075414797398 0.58954823308277759519 -0.24834203722042388907 0.24934646019216308299 0.078310577443034518064 0.26092287869528385524 0.48136092401829994047 -0.29139030672047799841 -0.22208480238083266878 0.094685165033745188889 -0.30150999047466764402 -0.13806362409404401848 -0.24315594853064578795 -0.27012546552214361517 -0.22152335923686194974 0.045975010077352440607 0.032277644776264872994 -0.18954428768378964176 0.10540476343578310259 -0.35228078100513693371 -0.15101051488941585887;-0.20971266365888174832 0.28042984870220055704 0.051437830255418405534 -0.18681762850250638319 0.23658861199302771983 -0.33402667209717146202 -0.46366954181113373412 -0.4071155226528841431 0.58680356388210153096 -0.30276415495427227986 -0.45383853556881476043 0.096097188343528955334 0.39233285391558980759 -0.45995823884802677917 0.27115442254772098574 0.35296003624354194139 -0.56913743055374144131 0.069309189594339445928 -0.12522647966712302514 -0.50032669874111390662 -0.487045973278190103 -0.52285533004445794436 0.13414960342953674566 -0.018286324615784416148 -0.34129882379860637664 -0.7443425078352058355 0.16618407666361909025 -0.1791299736981215307 0.084405901906092567488 0.012853919857233797944;0.14696506671673711941 0.49589159249521130857 -0.143626310227925158 -0.31937095617561039873 -0.23976447022587824009 0.32212277066768696399 0.20350816343152935972 -0.45217877338137690835 -0.022580741593090352531 0.091464255557251447626 0.40719110436960337385 0.21735157697612197958 -0.10631868271931715908 0.080974760297484224547 -0.7121192634502814256 -0.39227492496073840256 0.44976813073332094772 -0.066168100311433511451 -0.26071553379373091364 0.037117730149599639788 0.2091485788814289315 0.11497270129015825513 -0.62921098237986328172 -0.12918957390447338707 -0.11168881755857758276 -0.01010111034218331115 -0.013877825933213228798 0.056917528986380069855 -0.55119754579880597678 0.23479516665391458874;0.012951241627910201754 -0.10181047187574845947 0.16389085817404061562 -0.14541946625919066616 -0.096442646338335727418 -0.14849950521272362036 -0.54245118767363698087 -0.67298947316613988434 -0.13775991199507889307 0.1550485737885257953 0.4479316330688341008 -0.022040070359253285254 -0.73857517485492618636 0.12670982277858852671 0.046147831830020961952 -0.057693215133718674104 -0.27128909176230070477 -0.49419258046086111946 -0.31646137995322609626 -0.0019726878129874606503 -0.3419191518758685211 -0.83211075002752654672 0.50279662978849171129 0.46616683825282134723 0.045901374474836283135 -0.28892415098344270685 0.41120297321049209538 -0.19572578901345105695 0.002087733931013241364 0.19553095564687447694;0.22330475905870914022 -0.25689199424020320306 -0.13619166260271337032 -0.23642734489768083006 0.13711511404915252554 0.26614125143846589783 0.3051871438545594728 0.21370469438420441888 0.0050076874540869792049 0.087234030083531713395 -0.20103012490007521329 -0.35856932688564052691 0.18652656970789804891 -0.2811927356553427515 -0.39104299775107403958 0.13542155693678295525 0.22836957336925706175 -0.2065708556727623435 -0.54105788967812407098 0.1723818012597362892 0.32795155229887407167 -1.0812004267259762713 -0.59852876480920602642 0.89724969098384166344 0.19689951113550011041 -0.27384082712918672575 0.052909544953141034174 -0.28469801532749289263 -0.22765292701338216141 -0.47904235207535084129;-0.16477590022126215041 -0.16761146840004978453 -0.28109492595976098839 -0.25071329382310225675 0.36801188400283907365 0.3066491027508190248 0.19730365697048751761 -0.61617813057255399478 -0.15384670539369704745 -0.50955177783760852162 0.55911930432610201791 -0.17107441716531932019 0.22139549392617802193 0.31718100409218008551 -0.52301016764373675638 -0.16197742833929390516 0.26850263766251303288 0.0837541636939788392 -0.20596296759265958487 -0.43084971869331811778 0.29673181651329588737 0.097029188166226534862 -0.19980436959789416029 0.37019913920172581312 0.21080231145909009149 0.35479928883440153831 -0.29066595196980238303 0.045542778434881921179 -0.56453989994745545911 -0.219726676529432563;-0.18222214666255384663 0.13323477701350219804 -0.41636774989807445735 -0.028123938146728848925 -0.21223407558874976542 0.0086337933606912206641 0.027695482942823829858 0.73027069357646245962 0.40350343007508099324 -0.15288774355520776127 0.16128989094556256401 -0.18463851133392528148 -0.22929574976925709562 -0.029282359536101840863 -0.27143076590848030927 -0.49800601265766886172 0.21234682814384048255 -0.3703087233840300363 0.55785764059499820533 0.57515726247843035335 -0.048491176156595747204 -0.49635595366859419642 -0.10937265777252049015 0.076827857871551413771 -0.29529205304287448053 0.30170919930954598343 0.36891833517386563024 0.11552285523633951114 0.26873410862234042851 0.33512620090482708735;0.047524721083863637194 -0.27906954088777491396 -0.20040027501355289763 0.12951444268852493891 0.38064741986473438207 -0.16778809458111934583 -0.058549609431153337713 -0.15259764595333955017 -0.26467042238580296143 -0.4889241138782481344 -0.14688961257063681831 -0.10956998895308979469 -0.16913162892890248878 0.18902349802265763778 0.62988896751295830878 -0.09051142196998773759 0.24758302256418956988 0.063856768786139328498 0.05809914475928805444 0.39406102633926937129 -0.22999657009435775512 -0.30721696174053020334 -0.71501809010807337863 -0.04304549573210012664 -0.13385180544392769053 -0.5527856386074674333 -0.062671465980949775387 -0.2253707614991537489 0.37841110712878095468 0.52005536576285749106;0.14221347819429003279 0.17413393334272209145 0.34338090107772839543 -0.29216718075118658371 0.2826437428173584343 -0.043884768262397254313 -0.15074574228727471992 0.27638777380566226238 -0.14781889497806366407 0.26481451699339747519 0.11230902171023332548 -0.27390598380747227525 -0.27829253633257955425 0.036849606987244647172 -0.46121569421278368894 -0.23682983119983785913 0.57660959351645257875 -0.26035076960917352684 -0.50728492305429262466 0.41736299641729718291 0.31220276551256581632 -0.73754712590197180067 -0.46314290759814602527 0.00018205744515645879561 0.36111276430461242137 -0.48069750067686312089 -0.11621142305434042918 0.26170774299429788723 0.50263890331785032739 -0.33513494007670041608;0.12503515189928815499 0.071005934717502869336 -0.28548817617412386438 0.33916022429560055418 0.11652678505075167448 0.012655103307936458462 -0.019206816060865366386 -0.92321241859796754348 0.037994842877269681403 -0.11478022335344108262 -0.44363279547857192853 0.42157365948788289023 -0.42255075062109886952 0.073556865697391601855 -0.21125350608369306005 -0.035175224738899474319 -0.1087052672700684619 -0.12665534629055077986 0.10879221047709923542 0.063082129175484072392 0.04138513857398360557 -0.39338330575175312065 -0.15796787199751399777 -0.23037709566892425328 0.25361956310689615091 -0.32838866789533827095 0.47881259658273200852 -0.1051054816628272659 0.045038724723521154913 0.19433160301060795061;-0.35750343975403336971 -0.48350198868015820119 0.37331935692347201217 -0.17048299863918525698 -0.35978341633647337172 0.50609077312096395485 0.15590528782655055373 -0.096254337138983611655 0.34813617726977230671 0.2679280046547885541 0.16702719794977621826 -0.042910301179705227781 -0.21517219993850006388 -0.096831416077901452666 0.27062312079114864138 0.0049524920872638794611 0.31432016570583865001 -0.23403504014200363081 0.11605499809006795953 0.19407586482627281477 0.13559184895526771308 -0.15414469076306758222 -0.24905729193937192756 -0.15072727730778881505 -0.19593050486183449799 0.50704926305105169071 -0.11152144356550573734 -0.42853632755436049662 0.57455356554677050607 0.41283873899945977559;0.48285986114531209701 -0.47793630402797238066 -0.11816767167909242309 0.41273220052020903603 -0.058557746112574110553 -0.27937080605520620002 0.37840165721533214338 0.36411441553031043128 0.45856315177651030268 0.45729697623465831446 -0.066922877544882033995 -0.61581524948458266078 -0.08132181835184842944 0.10191596011250493581 -0.20286290895026706793 0.30670076493430409315 -0.033798622196772973303 -0.15275041084187690466 -0.17999980146140984183 0.32074304877827602978 0.2738333940236449271 -0.14140189967038391261 -0.54105266201666601944 0.52063046598809348264 0.04936291126457530154 -0.23484627991893780585 0.0021355347023632453851 0.3451165082326212441 -0.14433043869793027447 -0.27506365038898311637;0.29442603406548967238 0.22051751024836674375 -0.39827105558209097147 0.19578513381044962416 0.17701290577871903187 -0.47845264602992998437 -0.056693118124549246595 -1.0599140012884040729 -0.012041727761723172718 0.5195596972422751314 0.4142396018093556509 0.51825248997285977559 0.086898476390610976394 -0.26880564637038217857 -0.10010050297591831236 0.11695723010915973217 -0.37627743446007644312 -0.056228442400244382782 -0.1929814863867279906 0.34112841653353559446 -0.254410793968493254 -0.83660182451800058079 -0.65309266535740484461 0.67787092353884403906 0.33781243469119603962 0.058188717424639428699 -0.11632488900847084978 -0.031621745185329640238 0.020484583779519466989 -0.26582504121092154215;0.27017603371939769019 0.35450033511693468391 0.063926930336146034484 -0.24229147203379222675 -0.47963093648592797225 0.16015314070294406346 0.17600286105379739365 0.42897201949504865093 -0.71090141233380599317 -0.0967212615676164289 0.114794369245611802 0.080722535675732232097 -0.2902289614564717013 0.1323396936306936722 -0.074840715772121590987 0.049126293397267886687 -0.25994979956016073253 0.17436066166574878955 -0.61205586187487270866 -0.4629353239686453958 -0.023126887803725310749 0.43862849993558111761 -0.39693066583984915052 0.10248257035509214519 0.091510469269801081316 0.080230419542823450119 0.42133969033808077453 0.04417783652093490443 -0.44760741815022103696 0.078993589678372500007;-0.050082365042688266332 -0.21949210624376294665 -0.34383947360344530031 -0.55097366129646840882 -0.086960189093199941057 0.42502440882273873068 0.10673124641394703127 -0.57713850537467470403 0.39828504748922932688 -0.34605821588015184265 0.19962656689888627626 -0.21895646159675358211 0.33135702042895598396 -0.24206098132116632415 0.12025718455363207382 0.34453023059598825162 -0.3193863845972950144 -0.37082769270610099754 -0.35474499811923720927 0.2114750676602877022 -0.26396680029119329314 -0.64195719120742777974 0.12328723106257094555 0.44245506612758112031 -0.10531240519193059424 0.38316143774450706072 0.12085618258004771075 -0.45759866323853637393 0.56355504532904343584 0.04758819222018579459;0.3129323224537393644 0.044254606949608102373 -0.26486169709000090267 -0.21773053228062277942 0.20106032370394663622 -0.20352855023339119778 0.14668012310107783613 -0.47025645009188749013 -0.19174202992093075659 0.14999131936583084967 -0.20039476569297506869 0.37943441157706631062 0.22841703624531708994 0.39277597217592113976 0.021637054376515207216 0.21580643384652578587 0.034318282651663083171 0.47245499626094478174 0.47827345377782842784 -0.048763704623479224576 0.42279930195655307523 -0.011763133043963282937 -0.18023667961729888942 -0.090016918798874495655 0.0041502384891976074402 0.37619333199509835675 -0.076820726617046308782 0.13310238074518118689 0.32982812555410490063 -0.25247167440878964806;0.062152007332085305868 -0.13750900064777402121 -0.16843474380011297376 -0.092211701742095864009 0.34792074949902473957 -0.47389412727431085015 -0.28175343028917781973 0.37225651115349472908 -0.41680136704920800472 -0.30452264249747340585 -0.63021090499537979479 -0.46144318909241127669 -0.20854731362252054705 -0.61259274054280787869 0.096676716367978990374 -0.1523467879123065194 -0.16785098581035259868 0.11535048035607721462 -0.048939423729264575069 0.045362916395071888054 -0.48640721220314869777 -0.10299074700625381051 0.43391931403549499624 0.11849542751147150443 -0.12133720652327653622 -0.029913883883764307015 -0.19877746892564904235 0.20891951554636475907 -0.5307324240539184057 0.11363637902452627948;0.3087595372775966962 0.62680972419080727143 0.18800056972105924635 -0.52445085638164501418 0.11048824939786651422 0.47340512710595106238 0.17568840850519396035 0.17159674815955594518 -0.30758403322082600306 -0.37485623968857656463 -0.48331450037109952023 -0.015812690336324621704 -0.50972525690119840913 0.35999050059905540744 0.94877274063947725224 -0.30614674805179159511 -0.1076504433173145342 0.14798411949696066436 0.15320545758957654359 -0.26566714672834279565 0.14966518231532335848 0.32817067142051392636 -0.17522931352984835729 -0.20802861263467570252 -0.0049660715154473261679 -0.18237323086737666777 0.022498828348305421193 0.15067668296094519076 0.26343672054757938383 0.37927144026182957326;-0.12165059346829511233 0.099211338739288057464 0.11170365018299172055 0.07839216683208702352 -0.26614677329419422769 0.15983145311529600718 0.46473580534080383142 -0.3987975702300216585 -0.46105883713562262338 0.12437680130322252559 0.32565715146398543922 0.069482466539761852942 -0.0060182816259938751169 -0.56440532257190734189 -0.10855963621631387062 -0.21009986301577104895 0.23368548622611073906 0.48184550079643695408 -0.0077614362812033722491 0.23988598767915159105 0.10507309160355692013 0.038181317460828152754 -0.29628972545075049627 0.17425090482075961118 0.31878414401074017803 -0.22659455610284354177 -0.0038894293943003747059 0.1556437421735022697 -0.42137366971701101237 -0.0081989123284189578678;-0.3455424435700429342 0.50504082454908094668 -0.25542263492626310351 -0.23380735454223425251 0.26792183019684240319 -0.28987700716113695698 -0.2276895012145500885 -0.093383543955174508344 0.082894175387904833752 -0.43652718412503810352 0.35473788454357774169 -0.32084860833557399262 0.51440373620839119351 -0.26863125150263661434 -0.031950654984778212309 0.25021994001014064013 0.011148626892411665421 0.27645650386542214294 -0.19446886229052876005 -0.13515749739514759664 0.037773452512242289281 0.45815718638135483065 0.30140789795024375275 0.1809262513539597883 0.21266843397456364206 -0.33294128592003452427 -0.049829741733309007579 -0.3013999058638434092 0.045385036046040598545 -0.39648732997154723101;0.3123673055095300688 0.16065281194978139889 -0.32762907743997160548 -0.23575942051162096513 0.314786031745560968 0.15941298856570948472 0.3026779126761058869 -0.22285412888925920649 -0.17276477945338608588 -0.34658503953770630757 0.28121689350152617726 0.10262897262867395898 0.019546011483310886392 0.38642633581354424166 -0.39939874348576526186 0.01680933262100487921 0.47948354321853070559 0.32143589940574640584 0.25371275148646249553 0.062750347019576310781 -0.012327003709488960209 -0.68898273803349341371 -0.47825241702611409611 0.14317809805203468576 0.14613188439656485396 -0.022462115279827173098 0.47491721770336581265 -0.028582293776076291708 0.31726022382968799285 -0.28346551052109658642];

% Layer 3
b3 = 0.51692051952569140205;
LW3_2 = [-0.67961198470677730565 0.47835840276002772331 0.91430803776958169404 -0.17469983886442116972 -0.92356874897109908495 -0.26351326874415320622 0.97804620621938043179 0.51176706684735384645 -0.54778314178797971046 -0.28760807862120774114 0.4145372329415885071 0.67265956860411457718 1.1220671728121527355 0.62410010746826627415 -0.73569675076570328898 -0.23513598616334155378 -0.8332804293172499932 -0.67215806440691006074 -0.99856700953462818049 0.18397232822837866761 0.46493886296892616983 0.54646146930452965673 -0.31325270290986212407 -0.52492166080144764262 -0.57232938894801621554 0.42312605573332034981 0.86802939812109547457 -0.68362616967436795612 0.62373486919584852917 0.47195083212929839211];

% Output 1
y1_step1.ymin = -1;
y1_step1.gain = 0.382528974555994;
y1_step1.xoffset = -2.61075848464239;

% ===== SIMULATION ========

% Dimensions
Q = size(x1,2); % samples

% Input 1
xp1 = mapminmax_apply(x1,x1_step1);

% Layer 1
a1 = tansig_apply(repmat(b1,1,Q) + IW1_1*xp1);

% Layer 2
a2 = tansig_apply(repmat(b2,1,Q) + LW2_1*a1);

% Layer 3
a3 = repmat(b3,1,Q) + LW3_2*a2;

% Output 1
y1 = mapminmax_reverse(a3,y1_step1);
end

% ===== MODULE FUNCTIONS ========

% Map Minimum and Maximum Input Processing Function
function y = mapminmax_apply(x,settings)
  y = bsxfun(@minus,x,settings.xoffset);
  y = bsxfun(@times,y,settings.gain);
  y = bsxfun(@plus,y,settings.ymin);
end

% Sigmoid Symmetric Transfer Function
function a = tansig_apply(n,~)
  a = 2 ./ (1 + exp(-2*n)) - 1;
end

% Map Minimum and Maximum Output Reverse-Processing Function
function x = mapminmax_reverse(y,settings)
  x = bsxfun(@minus,y,settings.ymin);
  x = bsxfun(@rdivide,x,settings.gain);
  x = bsxfun(@plus,x,settings.xoffset);
end
