function [y1] = Fcn_Red_Qp_3(x1)
%FCN_RED_QP_3 neural network simulation function.
%
% Auto-generated by MATLAB, 06-Sep-2021 10:49:56.
% 
% [y1] = Fcn_Red_Qp_3(x1) takes these arguments:
%   x = 2xQ matrix, input #1
% and returns:
%   y = 1xQ matrix, output #1
% where Q is the number of samples.

%#ok<*RPMT0>

% ===== NEURAL NETWORK CONSTANTS =====

% Input 1
x1_step1.xoffset = [-116.063060960018;-116.229534617895];
x1_step1.gain = [0.00861222819736077;0.00860324037730651];
x1_step1.ymin = -1;

% Layer 1
b1 = [-7.9829844891608132684;-5.32211865926378902;5.9999595457437111534;-5.4885438384842757387;-4.5742846194338824262;-5.1361889414430974554;3.7349353682319081926;-4.4461992817974822501;-3.8853329304951143008;-2.0751052176112296799;-2.1555404304376728497;-1.7441934976095028187;1.5379248225986037468;-1.1774628285853747656;-0.64549305786694977094;-0.67023432523978165865;-1.2415450884512144736;1.1208095031270708386;1.7117042138679450236;-2.3434728226955785502;-2.3393503277516054517;-3.0286889444775590974;4.0807417196235382661;-3.6154547083603456592;-4.2533457007452843968;4.5264173974853090243;-5.0940821276126282413;-7.0892581664379106243;-5.5262189250535715956;7.7678486789346417041];
IW1_1 = [7.3692668313778035838 -2.0599188614218180149;2.8306190948444980293 7.1984318491233212356;-6.1798960525267006005 -4.0619858213333266406;5.0440692372156759049 -4.7204685684053675487;2.0900885701608298284 -7.290428300014647256;6.2052114161527169856 -1.7335520159289443676;-3.1926034721074150191 4.548564915897763683;1.3211619371907816767 7.852100064342996788;7.1707930723970720877 -1.6789222164122423742;2.0835715480987624382 -5.1892961636387893165;5.5433194434426118491 3.2264441645194894548;6.1425767987192703146 1.0455522874487221952;-4.3219934928017602616 -5.8182580315888925426;4.4411338979794656723 -4.6474613896293837101;6.1211450753383536139 4.0073968986171131235;5.2065277487320109628 -2.2775775138725471436;-5.7524148685588887275 -2.4461486873290181343;6.7837801090693723438 -3.2438829526014822946;2.5485357431357860136 5.5373637585052373211;-4.0892665902365141761 -1.8533694474320916434;-3.3655886507673851149 6.023934862092901632;-5.9925006911961791189 1.5680652512861492642;3.7683518446665487112 6.7180375681316837344;-6.3644791631087658246 4.0077721414321629823;-3.5969129415175009612 6.3581983666016350654;5.7332463867028016224 -4.9425417758805210156;-1.6983545974556437663 6.7424657484127097362;-5.5945081858415282028 3.9264469529208994025;-5.039539893747480015 -3.2282414800962988544;-0.055856585759857788065 -7.2599971532546296871];

% Layer 2
b2 = [1.88728399353420917;1.3605812707382796134;-1.8229584360963726475;1.218810626764012417;2.8556023796872134213;2.1114453848205596564;-1.7334096327158237116;0.78114409941972262619;-0.75529772677543471904;-0.61817986415677794731;0.38891556125558918167;0.95730617817143859316;0.92016605689724095818;-0.4856000439753604403;-0.40195478495972725153;-0.33759997213413495132;0.12295560176984600409;-0.51733758162768939126;-1.4732511650041344442;0.49839479744945980322;1.8104899831162817314;0.84818656396530212049;-0.18230861275482576622;0.52065815097689871482;0.84610486605956780615;0.73422210546139854426;1.2339612356455906816;1.3667428872763598413;-1.4631287637330052664;1.0819530481246963927];
LW2_1 = [-0.52268625492045128755 1.0529608427525525283 -0.049920408205914590383 -0.44862245162549413413 -0.41174574941409697315 0.047592848336883014637 -0.041227166911126190973 0.12426207004601978745 0.64822466007563916968 -0.4257402558159876782 0.15066317086251254653 0.11894908442283068373 0.40544526171635902889 0.35885862506392229854 -0.64742105910639502486 0.06576005800053094652 -0.47019748875972466884 -0.36377041736307347275 -0.20996999010369193917 1.1251092073290884787 -0.23250595570250215394 -0.23022933546111890024 0.081573179139348986344 -0.59421609884242165833 0.47540226739240032394 -0.48600220344114319904 -0.53429838333292101193 0.89142254634845163874 0.066632029437240128389 -0.26900621718837414154;-0.18845974238070287154 -0.88106614471296051949 -0.35716736003398180666 0.12496521976069512039 -0.27057057547111040829 -0.028983605296419041181 -0.36628233460895481821 1.137147017213675948 -0.10340921831872608438 0.079510644141764744153 0.42215972953896702125 0.59517823765732436048 0.25430555576987162736 -0.38570102677277484648 0.0073471057183163886173 -0.067275858810467756288 0.541528664733647358 0.16912338265104867596 0.4312192551193954615 -2.7287840007989436764 0.07859508835641844382 -1.0126939376457932962 -0.51101801424205750557 -0.37500401242261927059 -1.4099275873650463087 1.4818769212688343018 0.49968028783544532478 -0.45549097474986516287 0.61306549496733042659 0.017555068747274193974;0.89092930171932982475 0.070003662140124975344 0.076060020143645989954 0.11219256903766025579 0.51807681971156815948 -0.30044349035302725381 0.069418559844297053618 -0.43005303455647159172 0.17662240582788718557 0.47658530417151412362 0.49876539929706720233 0.0077490071296204649995 0.34435038736814366223 0.31614013808761598501 0.44704586684989472412 0.30141937530005374901 -0.33692219435450321274 -0.30574076903035407593 0.40451173315730132307 0.27450491418932021492 -0.043710864348068236007 0.39673991421846599437 0.0056729307397009424985 -0.089860428513771503645 0.59963787901976906003 -0.010783694851776385454 0.35435702354929693447 0.11375508267701982257 0.021274636676677779329 -0.081803756610626762735;0.18538617318672379053 0.34274531547308706436 -0.69074643631643006803 0.12640776702324557634 -0.38302876776115973856 0.044807545415911913256 0.62487256551721959141 -0.56642865974312972543 0.16956531127720073093 -0.34929661884623564028 0.49123920782051866407 -0.27787636487732447765 -0.12123526888125862877 -0.96776235238147612083 0.59981692724443091969 0.32447011417499449504 0.48352100002672149248 0.19214451882555844131 -0.63467136613306007753 -1.2531575356554629508 -0.46317915395814596158 -0.30390485418040319443 0.34851514690371487859 -0.43175565236042512396 0.025681673269460230519 -0.086378561722433008785 0.066712043248454630517 1.5274839524678782698 0.42151758497124436342 -0.29473380245896779739;-0.50086671048616071555 -0.17389229094973254752 0.26024280438493563317 -1.3180074122709108941 0.41572121595715788578 0.047295138706964293118 -1.2157105086361574831 0.075022940885325017923 0.9998667091046433697 -0.091460922507252476188 -0.0039568960183011970405 0.73787993446243094198 0.037868382599635860841 -1.1157901656060944529 -0.222085428346292163 -0.02335963409715249503 0.1107155380496028102 0.32693363706412087444 -0.89477185933359815184 0.53965843844385164019 0.35455888689860121099 0.078516166204383189275 -1.9280178771379072877 -0.11541426492977724383 -0.066384351050464432409 0.12872914864598469786 0.6366566769652958202 0.095428008718554419021 -0.87298399466651188661 0.063448283329186769275;-0.21327915672730593521 -1.0069289464588293548 0.57653536819462536389 -0.77081477056028391281 0.25664838577655324503 -0.20878815397479996707 -0.99111298163888417179 0.43600835127412446157 0.28444122648343755921 0.62766946670805789932 0.36145187206885986964 0.53937794103474390184 -0.7472592994176533443 -0.25525647464947054388 0.49533568490975588006 0.17886107415775090446 -0.95095042042015931472 -0.49169177556854060107 -0.67089423199832598499 0.27203461592163524774 0.0036636302343058765353 1.6280775424939448737 -2.0208680325358474583 0.66831526857994805191 0.57226799187753485398 0.34919638358738003259 -0.30461632293017859574 -0.9506379778477992426 -0.48384570826074052574 0.22907124304656575897;0.72466746935961723342 0.089830256387225373982 0.59003740944544125213 0.4412603465293660765 0.69746082607678849818 -0.67168807691208110011 0.47119396956548637023 0.8012272014898734751 -0.77448730921413211359 -1.6674483032239511004 -1.0140581024696060375 0.40057900324849776696 1.0008799059886150928 0.19045985591229849798 -0.018237530087263781331 -0.50329970642195132058 0.21800022473427507763 0.87411137836345187413 0.45424901533711359303 -0.61421557492810952006 -0.26805284532200901459 -0.93547595151853879525 1.3560917640331355827 -0.57568762133467632491 0.0794062280699908557 -0.64766482737362385258 0.47516747323718488971 0.70738992333518735389 0.52478226758890900161 -0.15914493030232107484;-0.73182929297324872397 -0.5400625747355931594 -0.34323726496316553369 -0.4228313081473794588 -0.14470053733192586587 -0.43542486232727856121 0.15154673161707057916 0.011619343973181912519 -0.12126494301145795962 0.13885041653567997688 -0.10458027308917770826 0.19426651214570800352 -0.054033464059222463538 -0.18408845389903846779 0.27627577140329651062 0.36289981867030873808 -0.014887973710733221067 0.36114658438419494635 0.1212267277936476817 0.87695484698340187002 0.05920791479392949197 -0.62933032656544640737 0.35672055564185506382 -1.2594565790173131159 -0.10787731044655432533 0.86842717114135892231 0.65347863263141514611 -1.110708617617991667 0.17046389057146943413 -0.13795087058753921494;0.60853227798042885954 0.33866390258134765334 -0.58215997351386949976 1.2428707239114638039 -0.34547208204708779178 0.36182678129489259655 -2.6323812819493621618 -0.77781767637599708021 1.5600916042003698525 0.14472866148607896331 -0.23766457972046703406 -1.3406214091534929267 0.1616743393928889716 -0.37161351385091700994 -0.38058867207932789434 -1.3536745364016617987 1.5561329248944766324 -0.11376823621840911893 0.094989493391541113265 1.4937499457479181952 0.47000322692438184502 0.3378508783657556136 0.51816986880532589499 0.2664559276695910861 -0.38152158804424118888 0.54983651138334899144 -0.57087813853887237059 -0.42933022129413123125 0.07811295739797406712 -0.19401061867703736641;0.94841696282984599975 0.30358246389269383236 -0.027091268822600635124 1.0040209909260449095 -2.0203062386991272881 0.1301844681357648692 1.8787116029718906596 0.066694268307039117349 -1.3280237821397666842 -0.55226187883171262705 -0.90339154153964951188 0.69259249271736256226 0.31260562211340486849 -0.28199060876154630195 -0.19424655738760193691 0.6539754098538548277 -0.29224562545852811324 -0.26015452786250053974 -0.64135212726436108266 -2.4942530289520625786 0.72612367425167834156 0.23108608072271275002 0.46720099573763196332 0.34526920099401237074 0.023291834774005804737 -0.14371359242484169072 -0.073420799182258383864 0.0058874716059540300322 0.76196583659106897901 -0.096731068479540729954;-0.050023328115496423774 -0.42641880816578320301 0.37849867933172692824 -0.18090506741616316222 0.56671785568542920597 -0.98515943475335199242 0.30408543949455035804 0.47088060896425021351 -0.27818588772030999889 -0.12545466314874376135 0.3400218452074138531 -0.58455983831874369638 0.44997122936816952299 0.2650950156198018659 -0.37490940595410221503 -0.36763253200130019405 0.30435340215919026718 -0.43402319113436432785 0.19683193579430363629 0.57075319536844171253 0.13499628729062099208 -0.086793423679295544915 0.060786240973003106969 0.39089624417721779981 -0.23418708087562606357 -0.21497250397268585775 -0.087305529326860101258 0.38759681360332098876 -0.33448275926946818837 0.34032639446263829308;0.58097629365655267808 0.67735211923769134135 -0.15072910645155684906 -0.35885879506723095123 -0.12591592254876535217 0.052689334620810955589 0.02643431042573083159 -0.29928028424504143912 -0.02207462180669058846 0.06750824579257018454 -0.058850584380930021089 -0.48353355897949296116 0.22175219113137753513 0.84358326611132417039 -0.068519095485064338003 -0.49534868215213484488 -0.67203838517763181404 -0.27346299582999611388 0.77282370686577184227 -1.0646726892606059867 0.1930260676030850775 -0.043690682795887204881 1.135811100777710303 -0.10885165716933016544 -0.080962769959607924775 -0.60279936698873359813 0.27542623377617564406 0.32191035120463257213 3.0583919395535086316 0.62563306021426123849;0.11055185099705026885 0.19082149964342806636 0.20284335694405031258 0.03268973700491540485 -0.031567061847957003651 -0.61700535906099651662 -0.57384349718751959113 0.38576093795505056461 -0.23962683081996941081 0.068248075104837463423 0.70490547564363714717 0.16242266908263261471 0.23622066714649148089 -0.68023056337942533478 -0.53174907342438781921 -0.30142869343240707991 -0.10267976533169527464 0.21611508004547300144 0.11634466218432497342 1.271790340371350414 0.33315636047738167447 0.036063918680165882313 -0.018463318239152679695 -0.098101496189865231012 -0.84275203442418789024 -0.27850042465554841753 0.93909025470134610547 1.1833595518622090914 1.0057945654245343814 -1.11635676513332327;0.51649401965966135197 -0.386643257542657659 -0.27617276775647797704 0.13146153311830385824 -0.27821359624503144703 0.22766973048472874397 0.835522475748647242 -1.4540949144630810341 0.57917111391224496142 -0.42872850430775066854 -0.38253569723677333103 -0.65723296767660355222 -0.070020360850560695032 -0.33366635199816985224 -0.30368709533071064355 0.3195197595843614069 -0.34144912462005183595 0.29215854792798023887 0.060696752778771456693 -0.53509154522233448592 0.49713750760931402217 -0.12300841390479778925 -0.74159497262663631734 0.56973058211973426346 0.10250755778039034871 0.14565364735464061963 0.6393601621000686297 0.049426521703798950713 -0.38888921257371372731 0.14537002941758372931;0.302522414714953225 0.58167312342474797315 0.038399953699188589529 -0.15152331145595482331 1.0055346803417803958 -0.45939193811657491606 -0.037732592866618605565 1.5973742697657373757 -0.42635584854708241664 -0.82948189138434713641 -0.15922707547689837759 -1.3461979716379861571 0.61103254065300172115 -0.25425951602981317068 0.60173987449397858818 -0.30009132785461312132 0.0151904320451185567 0.033862156188254825817 0.13348004938293370203 -1.0203345675165504947 0.29166915548060157182 -0.41158341902782080712 1.0246362901556043123 -1.1945916203408939449 -0.012675968671035871965 0.038009428757112703745 0.7028429266855986679 -0.14366720613272890295 -0.49757135962787119032 0.099587645322175039064;0.21570610145264179636 0.44655482898631293498 0.20572003972769362101 -0.48801617533182051201 -0.57769421726761704949 -0.10143306201684663959 0.35907384840130557313 -0.41926320820821905144 -0.68585761485663110371 0.21495583541716967169 -0.2985502308076984912 -0.053832772855011881696 0.271806410589563896 0.044752290994304402827 -0.61255471028748842421 0.73818265513747427509 1.1398445144945676955 -0.13827727901982320158 0.68434819571096183743 0.51440797813716787612 1.0218754310285860232 -0.36590268525940561339 -0.64201506997707136204 -0.019258495334439226787 -0.36519869822625639078 0.61417076371068735074 -0.043214920988137846269 -0.63916066788093806039 -0.38618043388403744398 0.26833456532881316825;0.88695653399538731954 0.29961025630522358787 0.043792806867399385051 0.47706030732811299799 -0.09749609053423756444 1.2843102188250135054 -0.25877868845068069392 -0.38923803097632519998 -0.362906047579833968 -1.6238892090919807565 -0.31653513442898012498 0.0082278251452777267233 0.6669327608907438254 0.29423843600861121494 -0.50359340616465597673 -0.10629888995150928166 0.49504610318279135273 -0.28451244958196464374 -0.64994534248060076287 0.53175591705358604688 -0.33180664124095182732 0.44202617052825698973 -0.62257692198090430757 0.06741020933072608412 -0.14816773798765675574 0.4566092832388845002 -0.23763623760425711673 0.51639575528329717535 0.12397572357527636422 0.60978247741189295361;-0.14319002054869842122 0.006224481713323121515 0.46853618656260548336 -0.15757958302718894084 -0.10285019446925945663 0.18318560096395550274 0.68473258435262651656 0.24767116031186059422 -0.4664194681032710621 0.07526961823906967719 0.10604415390107387041 0.59287457097674201023 -0.054779160463851006568 -0.17020294424038640013 -0.20932742807380386174 -0.046847418096695750411 -0.48534719545657861728 0.20694561493964272469 -0.78475904067181323498 -0.50535257164434788102 0.62296545911192635625 -0.36546292853690032221 -1.9058205820584450674 1.2185766116939658055 -0.038984881439284427285 0.37899116977016611418 -0.84255927756744031232 -0.30340206168732442027 -0.35914080952060939422 1.3643272303105959953;0.01055754206016311543 -0.24421340226020174513 -1.1088921937817743935 0.35755721571335979947 0.4782304208763112352 -0.20541715113174938145 0.18548738887321197799 -2.9089665212705053676 -0.59524846341961712426 0.36655325598701549161 -0.8949107397404224562 -0.08709699500333382971 -0.47216185672744320767 -0.75230457398318795192 0.54340602552619066135 -2.0567855899861204882 0.20792822860126505824 0.3851688674313160643 -0.040473706667299193251 1.5346766380181959821 -0.46674938899222168098 0.14641477592446711098 -0.36472013857998497599 -1.7398938351647845746 -0.31763551300157710777 0.33691902591541905698 -0.29732841218724498367 -0.76955237789521246938 0.759199531696478358 -0.23276870425363466177;-0.045129709864828677912 -0.79027011499601840239 -0.48167601349211791595 0.34458281075881486144 -0.1060822679250203876 -0.26300868429273471794 0.48169982608553357784 0.41562527010797878368 -0.11956241672612188953 -0.33333804318169951708 -0.097200431935261025207 -0.14629914161642262882 0.014331092662987737762 -0.39538364222286792593 0.27493145608689573134 -0.099933145864876879449 -0.029352516956992771857 0.1266198469194154963 0.41003500857613273123 -0.73844921842724486893 -0.092860640496053997728 0.75569583901830605921 -0.51789093644947292727 -0.5599452063873119334 -0.42351238075945729644 -0.039467592695832116878 0.22981652548432812688 -0.070333305954245917135 -0.39561460016727006961 -0.50419167784707019653;1.4440124378455925225 0.084434717721152352521 -0.32921248819319487433 -0.07475019120647696802 0.89264621438334945669 0.1100863979283386862 0.77246476483959081172 -0.2619927873450752509 -0.54874684740415469175 -0.55685094278076519014 -1.1022146933160830162 -0.30240980707872394673 -0.068749490370119639704 -0.61262116611187822368 0.23701196439490554435 0.73072543874025408517 0.67483111665689399228 0.81075097000225893051 0.076726348004822850224 -0.21837259218603627398 0.20905950829565142501 -0.40601485241589496678 -0.080643416741519258206 -0.058580432850403652001 0.18539781992005424649 -0.011714987380290314486 -0.45351475851321160215 -0.060735224588957734126 0.75001681911666961966 -0.42258828015399041433;0.4734804217912578217 -0.20423662676761336621 0.38842250655981369611 -0.24555220443933631347 0.250402329738395657 -0.50707722792497067488 -0.59665959660327949621 1.1075715195941482349 -0.3836697247991833204 0.81910279866357427192 0.28448312471489373143 0.65318473316035208232 -0.2392639752267003983 0.033410922772777344736 -0.19945416887294628583 0.91716723634677421728 0.23699537002141859987 0.016926074234146739478 -0.071853652983271537602 0.38060438589279266264 -0.46056754476564604195 0.11914836679564677624 -0.0046636995819018100401 -0.27449749249061100587 -0.3572909587361203787 0.22966634608649943994 -0.13351755763087597151 -0.24533356434310096827 -0.12738407000266965818 -0.54382478416080581862;-0.16902020682870363966 -0.0068627861695713327297 -0.25894787095854443493 -0.18872775276585482263 -0.49442601559719268067 0.96519060514571775045 -0.22694379194814329193 0.42405859906708487372 0.028302749522603379284 0.70035684089952887632 -0.62521872585087323593 -0.90364246033001260905 -0.84014614012508970209 0.57261881352819754554 -0.45874754878763152055 0.99570577889634193092 -0.2021391591168936186 -0.30703928527586149544 -0.3113436749473090237 1.8909363053862278115 -0.51996335053499431744 -0.12301153670297397535 -0.52194989091276677851 -0.27261655234639742273 -0.045406563752766443409 -0.46188182114875170337 0.72141997885170960902 0.22698074723259742402 -0.6260914048889782979 0.28647683838266591039;-0.10910695473563891689 0.15406574012507776028 0.54280219079143965377 0.28060089887178668588 -0.43546992085263436234 0.56355619939355416914 0.6333289976571583324 -1.2797330763579444213 1.0055452864184395434 -0.5266573622653411002 0.25469853805385472834 0.48564949463225737247 0.26125886007661180965 -0.81094159375174112991 -0.37870574446279103853 -0.93196476218307156003 -0.83655608053423502479 0.63022650510134092805 0.41163710028422884069 -0.85877443986642953977 0.056299024690305989049 -0.29353278292159884488 0.036983919701285263015 0.52793096013852192083 0.39303131790073192464 0.031913654986870772234 0.16158330886692848227 0.68891993759155678578 0.44029274789187478056 -0.58744438214203908988;0.46128657812743101285 -0.20205761760228338475 0.18293774272140611581 0.60029114110884207456 -0.036397327447281260793 -0.17956684556843821587 -0.21816978762201441611 -0.025736900768286205543 0.17902224742154282389 -0.088242604208411193345 -0.24341850172812237729 -0.32297857311197369912 0.53455248988917103414 0.27389992636220439337 -0.097684198061166543914 0.42934501423422799515 -0.65676950973691738955 -0.086415887873312433043 -0.35456747847658048878 0.63374662813629156766 -0.27634690618185980826 -0.71671822818954855627 -0.71077965510986718112 -0.063863364255990262564 -0.039215708700661093544 0.15721065121175750723 0.10800423254688944208 -0.78868938791130160926 0.24944692950224992001 1.2197492255902195879;0.66148176501674738059 -0.017263017127110209803 -0.59090421834202233597 0.052245009352106526468 -1.3224232392401376046 0.94477325711831516841 0.91031721250817598801 -0.72467028722250304007 1.0910277782618891251 0.57949985716441088091 -0.35285973801241105052 -0.10352716959355337534 0.098269305969876707962 -0.1299516213641080109 -0.10916839858033206001 0.12244554801290009893 -0.20843083767348202784 -0.71284164575761188587 -0.94462523246659801934 0.26388689749807459073 -0.17537374958717785733 0.17014357725135159649 -0.56457175608044674053 -0.79680053774353054585 -0.7866355676560956578 -0.62846329934932232408 0.1525316375774277422 -0.87403741506756549295 -2.2745767012933866269 -0.37142002369362120406;0.10492313914614881387 0.35833302220506596525 -0.17925413593427844128 0.66249206707719621168 0.02959169480379216649 -0.01334690287488419537 0.66578204040082045179 -0.7986674235780285569 0.446191079177439609 0.44408439403614036189 -0.66142456123100146215 0.085495805355898471523 0.28617326325522834951 -0.29701286357564021801 -0.54743240546257743162 0.6012292274261267222 0.004662707705759059143 0.103296117574265503 0.32007723503919821573 0.99068288413982674712 0.078906762975859870424 -0.11500632972810381771 -0.80685233316482840582 0.34433715408720000362 0.36856082987066085543 0.40495007716579678458 0.31568006060598230444 0.47466935418056799278 0.24965922838542578543 0.26155184407608000896;0.045646057460952689511 -0.99433862209524392917 0.67020997823329120369 -0.10727910130437653957 -0.35210946080966010197 -0.66419950615059597521 -0.13296758139520631348 -0.47222040601751569255 0.030924105420632341801 0.92047032732370537289 0.19388659064829813494 0.1922165511132921667 -0.78573259805205097894 0.70841560064685005216 0.84807046435722699407 0.089681344124737230605 0.39351823389913481721 0.45990404713396693115 -0.620252854499263373 2.049984564790358732 0.41193620592829693905 -0.083862442994852529066 -0.49450088710597500663 0.13840042087761159073 1.2520592907000989147 -0.8317782912847823118 -0.6450314618733391514 -0.27444212312575944068 0.11652325729123276521 0.66441134113182220844;-0.086626102961718201567 0.14004885625299010043 -0.21169323258332425897 0.20804142200106923166 0.35532835809309859521 0.37233990985940701446 -0.27903608130089041506 0.27879311810502716007 -0.36214789198487479238 -0.092664227304574839361 0.34436986332783037223 0.47489088659297401529 -0.44844407029489258276 0.20063289022119851213 0.30592713561338841233 0.078160562412284209644 0.18301396049150894796 0.38509222820175798008 -0.38479575087053585758 0.16869917301525866327 0.3479913912311788371 0.16359991913541072073 -0.30557361261215509884 0.47236493430642062519 0.19590741507428130475 -0.03608056982142626018 -0.11729719119907819347 0.41113110946469344498 0.28676114524189161292 -0.0021431503819064399823;1.0552428730454803674 0.35255968929903158671 -1.1473643638529102962 -0.034401946653828424649 0.78799672459548320003 0.25092542668109873993 0.0052169831553291355283 -1.1748073509380942969 0.8267030965421957589 -0.865586664983140186 -1.0047234681635257569 -0.97389976665462574257 -0.2566231278162462992 -0.18471323407720779963 -0.12876554516602814471 -0.51085985815876233662 -0.39718068710160808754 0.55174620678539920693 0.55945109067135145864 -1.2225009728396689646 -0.5357409063449624087 -0.37612979255222184216 0.86012816148639359426 -0.66539974262665857463 0.031100505874127968436 -0.8352869126485584772 -0.22832803546042115816 -0.19133198542440763013 0.074576957554575287745 -0.40084697838382332691];

% Layer 3
b3 = 1.6200868259517349212;
LW3_2 = [-0.82000491026818889129 -0.12505434662658881928 -1.5247440916464849447 1.4827246028937088873 1.9194133779196298484 2.9342297920768078967 -1.7823816310333178148 0.50642506838740197761 1.4190929021685747546 0.35664568181267730651 -0.90795851152660667083 2.7450971815707778667 0.80674576293021171836 0.81871677455329683326 -0.56498408487525531019 -0.10093959199036610375 1.7133798206218406879 -1.3554273228611439794 -1.6744876039831964043 -1.9464930953662056279 1.7169921638771148409 0.77683579115288992067 0.87348668074261071048 -1.0098833009832919316 -1.5324865227338102525 -1.7464525488447235624 0.91652314046152472127 -1.1334186856091736928 -0.60456094969485929536 1.1726073500993805521];

% Output 1
y1_step1.ymin = -1;
y1_step1.gain = 0.045793148506551;
y1_step1.xoffset = 0.02353331325223;

% ===== SIMULATION ========

% Dimensions
Q = size(x1,2); % samples

% Input 1
xp1 = mapminmax_apply(x1,x1_step1);

% Layer 1
a1 = tansig_apply(repmat(b1,1,Q) + IW1_1*xp1);

% Layer 2
a2 = tansig_apply(repmat(b2,1,Q) + LW2_1*a1);

% Layer 3
a3 = repmat(b3,1,Q) + LW3_2*a2;

% Output 1
y1 = mapminmax_reverse(a3,y1_step1);
end

% ===== MODULE FUNCTIONS ========

% Map Minimum and Maximum Input Processing Function
function y = mapminmax_apply(x,settings)
  y = bsxfun(@minus,x,settings.xoffset);
  y = bsxfun(@times,y,settings.gain);
  y = bsxfun(@plus,y,settings.ymin);
end

% Sigmoid Symmetric Transfer Function
function a = tansig_apply(n,~)
  a = 2 ./ (1 + exp(-2*n)) - 1;
end

% Map Minimum and Maximum Output Reverse-Processing Function
function x = mapminmax_reverse(y,settings)
  x = bsxfun(@minus,y,settings.ymin);
  x = bsxfun(@rdivide,x,settings.gain);
  x = bsxfun(@plus,x,settings.xoffset);
end
