function [y1] = Fcn_Red_Qr_3(x1)
%FCN_RED_QR_3 neural network simulation function.
%
% Auto-generated by MATLAB, 06-Sep-2021 10:49:56.
% 
% [y1] = Fcn_Red_Qr_3(x1) takes these arguments:
%   x = 2xQ matrix, input #1
% and returns:
%   y = 1xQ matrix, output #1
% where Q is the number of samples.

%#ok<*RPMT0>

% ===== NEURAL NETWORK CONSTANTS =====

% Input 1
x1_step1.xoffset = [-116.063060960018;-116.229534617895];
x1_step1.gain = [0.00861222819736077;0.00860324037730651];
x1_step1.ymin = -1;

% Layer 1
b1 = [7.2480822291743862706;-7.0668082848280224795;6.616014746255176604;5.8642775312892174711;5.3365020343078874987;-4.6977851086084454479;3.7407012014284113377;-3.9341363374323878865;3.4622532299702686309;-2.6306922744370813128;-2.428614687252049098;1.5599832266983157947;-0.84449188139321040847;0.8304712001177757541;-0.32305825035354956976;-0.8696412902685575208;0.64741482281638407237;1.2437589722024460226;1.8309871787833196244;-2.7258626372544583205;2.5664059152785005935;3.3948945078227659167;4.0124914250123895343;-4.2584280780476886363;-4.4520101769141309234;-5.4155584102195817309;-5.5092996631369492988;6.0279696180881190415;6.9285701640830570369;-7.8342812857059485054];
IW1_1 = [-7.6651392278281500481 2.1441800458380453342;6.1230403313071999349 4.7104914947590250662;-3.4073341437888697847 -6.8165238409214019555;-0.12420103829401876738 -7.7584456370854253393;-2.1797270380745454865 -7.4820236467746950026;3.7816277592451523759 6.9624496790487091502;-0.80999748488835165983 7.7874940660849665264;7.3802106632690192001 -2.3951728047648876974;-6.1536783048360543802 -4.5527280180293629996;2.7718636808214909273 7.2166602596933300262;3.9302923550972437283 6.4801591371734330593;-5.2106646479351388379 -5.5822964586784227237;3.2604554253621924609 6.818437994078137443;-6.8422624840839301186 3.1284607699269888492;-5.17382749672220843 5.2927194039181291174;-0.88470592771021883127 7.4033927704486455212;3.0766820366736844505 -6.6733249120285185185;7.1349487050291164891 -2.8291346766924663214;4.0651533490130358217 6.3826957331559928122;-7.2400291506566105681 0.98452000474261580631;0.32303683306445335477 -7.6611451796541825132;7.1563395993523970517 2.7471248482333630037;3.3758660072165298516 6.8603036677739668292;-6.5962619375341997596 -3.5747119997401384239;-3.3277114394699851552 7.3680803827753598156;-3.6295399862950281644 -6.6839958731172872675;-0.6518807341887269402 -7.9826725308803956338;6.0504255017579975373 -5.2262749360937679199;2.4935480657979227637 -7.3943810017407924917;-7.1195278344409134164 2.1134339201989478241];

% Layer 2
b2 = [-1.4520838471685946214;1.5736861471548622138;1.4224925790041442752;1.2934986293542531932;1.2453304130093252322;-1.189812593630358295;0.96782074176483934291;0.89289438438819135335;-0.7463040514657138802;0.59065582422838658339;0.50326594776347632898;-0.36306633096127333138;0.30390875276226381185;-0.19154387597713382063;0.052310390237757603549;-0.043234410987444876762;-0.21793048712398987998;0.26478504555747506277;-0.48492548592852563472;0.47332313515587837172;0.58336352869783292263;-0.70456138849358096454;-0.78495848943821922017;0.9689996700467071733;-1.0407192324202105826;1.2053503509724197151;1.1761734674052770622;1.4284679407946485608;1.4850575148538951442;-1.6270671658080324562];
LW2_1 = [0.32642432033430718308 0.048754406803856918662 -0.012904247104356520587 0.25783367441934040842 0.16880664727174124473 0.14404881988656215164 0.34277656912537129985 -0.3202500304883588722 0.4884428643204022924 -0.14696168678625617932 -0.021686985403918432325 -0.47217379246689133998 -0.28552859786083095717 0.36571211789497209965 0.057543575944866462435 -0.017978530846433030815 -0.16167279111557444904 -0.42869305545089542164 0.42189537793141468347 0.32222679904952594709 0.14045826300631089611 0.23397524754362902799 0.35040202576016621361 -0.28250177699224865435 -0.39557569722944252444 -0.35995996864026985618 0.23156908846618509679 0.21201017518885251212 0.12799426972751304366 -0.17642335865512473458;-0.21608252845976269607 -0.41611332227941688622 -0.0076408068179400160519 -0.35326435902937458611 -0.35608381261635863035 0.62033736974747366588 -0.32231866614506821112 -0.64481080605182594656 -0.030906978531833689816 0.3053837370446412236 -0.20952455904648162321 -0.35712224673352704896 -0.1360552739455950233 -0.040959871839372677393 -0.45691130887422198859 0.80953382200214740738 0.23494810586797204577 0.13330968878920515519 -0.14688322671907264039 0.082226362001740549434 -0.097866919032527949218 -0.52302582310675782562 0.56853546856758585548 0.52812686660095431446 0.486256489227862021 -0.34505711652780346466 -0.57595602260390810212 -0.45882337582904414441 -0.33909603342956728955 0.26491827039363013974;-0.56468949470997564788 -0.40932029134682301752 0.32533178656801214901 -0.3319662602408505192 -0.57126668211298170519 -0.22092089864633396301 -0.065638855190330497313 0.099142956698033260499 0.60069870783085776988 -0.0056133839257046028171 -0.16437900387370202315 -0.62331749701417793474 -0.22904578419426194213 0.063073076053350732306 0.17844335498553651198 -0.14308675967603826096 0.086175793113537291212 -0.19473832846021452148 0.33166563276021271411 -0.32053415849364852441 0.083101706214362303093 0.34126521814271443267 -0.36686066142803536172 0.11613732131311164941 -0.1658221775579114543 0.38976816084913262772 0.4180987622750387267 -0.20804404534796647197 -0.26478076933210697996 0.020273635373818387623;-0.2675374979893828109 -0.5105181172417067037 0.14914327265124180388 -0.27998422958867308363 -0.017523945059558787563 -0.41995426038242233968 0.054364184706663161439 0.39740552030897857705 0.22691555566563814672 0.063686201334996708767 0.26966701473847920489 0.097647404349569602577 -0.34320688476718053117 -0.23852835563645383155 -0.35676238006126742563 0.14855922741939481257 -0.23317550284393434579 0.36052057193609299279 0.089990716670197312688 0.16505057036186301933 0.42289813719906932388 0.031720949324572519923 -0.44343522136953378299 0.23757193169741017136 -0.19772555532173119452 -0.0051640660285074439437 -0.23643955360869028937 0.086197352155756398751 -0.22257388550608961375 -0.33383532173353019923;-0.38144135172450188698 0.26524440758506606652 0.38648975573122185123 -0.43630265699191711493 -0.24401894836901544261 0.69297561494816983796 -0.32109277490461435312 0.50288842604264882841 -0.37116452543203892755 -0.14021658494998198718 0.33858861434907572274 -0.12559806223485062149 -0.080020660548158206726 0.14552819723514073824 -0.10097602200120255056 -0.35589598535641286947 0.067222042922133393161 -0.53213932861162038801 0.1560272502486375612 0.23834501150521239521 0.29845620493495550463 0.33069696213947941121 0.22063107237880549838 -0.62807518875050194485 0.43230017880003124287 -0.052568897861520427761 -0.52062046853334975616 -0.22368336756871584625 -0.069740432490296336288 -0.19393811198493832171;-0.028440136195507999956 -0.064905052628551965221 -0.43604853063202358987 -0.028239465663868461992 0.12523037700341657641 0.35664346370935545716 0.44357524889438193494 -0.57767053394640399677 -0.22302183688246246529 -0.068265691973447936713 -0.38291659769640673527 0.20992755037635701942 0.049830207555384094242 0.25659775980963267505 -0.19935344545542776906 -0.44432001495866568774 0.37824709010102419704 0.054305539796062902991 -0.29580319733063487053 -0.21403400220700499745 0.1285431823264769069 -0.30311493256794624918 0.15685627525677256489 -0.65083487703058340301 0.48608657653166503776 -0.31337483408896615877 -0.21828988079525446508 -0.29127989147430971562 0.25235352854436671199 0.38645250136427977683;0.015234082923017618419 -0.095095205728762330355 0.5121043360481239981 -0.21883765396407450776 0.38340553301448371259 -0.069959490990290695844 0.18258988325521754992 0.34965664963933829057 0.22867510308787047935 0.017533294665161017895 0.39973115513467361026 -0.34380360896884787358 0.19480526174052184563 -0.073381495116154341063 -0.26656142355428447122 -0.12915781539316822935 -0.39788444973771147639 -0.49022181453507657212 -0.32334161697014895953 -0.39434027219863759806 0.058412914467549370556 -0.15989257060973499636 -0.28774719560793377005 0.034999515965386251981 -0.33832408481178510851 -0.087241046104915231929 -0.14751595049422108752 0.47179103851291753768 0.39259488407791293119 -0.39832818588241492019;-0.10831985385517613196 -0.18031509969787232195 -0.11871320077008896965 -0.35898805869682343106 -0.14536559098430382186 -0.44374843480889875069 -0.49398253227200128457 0.56476131394877071568 0.1840472842774569795 -0.30723750039009634083 -0.39560901685577248843 0.14205759766555212109 -0.41679036660291562955 -0.16092660991170490425 -0.057027202538869323223 0.17971008095233420576 -0.30899758909634006399 -0.35103898554632112505 0.30091273155733455624 0.11827486820687441171 0.53041687990972763433 0.18856553044406110242 -0.079117324471332933777 -0.07108573180207024278 -0.14815266739905783022 0.30497432698549720165 0.34120163804184278078 -0.32690643327977064736 0.070003321847137395251 -0.24844191407859775311;0.23045075202048792562 -0.080500799218506807753 0.26175290334988721153 0.23772326271414209731 0.3386935634941356521 -0.19894117574377290225 0.52605303624303245691 -0.42889746147408147614 -0.21468972385444082263 0.293202516515369771 -0.23546662705101500945 -0.4414912825028760035 -0.27024854807639248078 -0.10228708304521340333 -0.0010070231861793248977 -0.30088512447474957678 -0.061366494252388659181 0.28913711460991808888 0.019161374462138083125 -0.12535692600530295993 0.51365921240051504171 0.24573146975713031082 -0.33632201048145432543 0.26506255657219557342 -0.20220468330509486221 0.58514332172509075924 0.33612846743911400926 0.21874216271124155564 0.17171535908643989488 0.27091289470891688484;-0.3671516746251780039 -0.21615495358251637925 -0.48587358715172979107 0.067392325641156394789 0.18793848948443128699 -0.35742144625229371746 -0.041427479234769103156 0.62154521204333323947 -0.38194932570562212248 -0.29446050588978861517 0.22427602043752928318 0.039530581416657585569 0.4122427325046491009 0.12751998689819596389 0.045684580992174657343 0.32800378859916612395 0.28703411568947267973 0.16044127051902976056 -0.518205968442231657 -0.25204916478053102091 -0.071474459761028064086 0.1599916027422423892 -0.17233839626595393035 0.27644036947347860877 -0.31881360886831944246 -0.29844608065545541464 -0.29084171321191570891 0.02533158947225394933 0.39106135990556367688 -0.14698427009212561289;-0.21782295355036815354 0.091756372373659397801 0.38027578438830988983 0.36088205844836690472 0.046416320601450886119 -0.036486863149673157136 -0.31068002014088258456 -0.26306901871021515227 -0.12302989538001510295 -0.1645612682972810159 -0.11820828559344705166 0.44104132226451775445 0.46009203343703419797 0.18785189137813432247 -0.051599792558807006104 -0.41925855329981032149 0.19943993510100332944 0.30584035210763149681 -0.32205927907369885643 -0.0039105784591614081713 -0.065672728746439576475 0.3341949477542920377 0.13080147907256056694 -0.57558825478942854392 0.32539022335382472573 -0.33569961650992302671 0.14693601769785361033 -0.46690349782119183741 -0.21562892852110149278 -0.038513410149925181303;0.10371944020499630768 -0.55441087788368448308 0.31392358385726443215 0.04038091523214332873 0.4407828702208373417 0.38728270352460902881 0.32508311171676224083 0.10284860010057321478 0.23983839973426435144 0.21310486878064918703 -0.27864632829495056265 0.21302759913496807642 -0.19174186608326868053 -0.26599774306251489087 -0.21055978818726639457 0.50751462739876829211 0.18069702570659920693 0.187014095087136345 0.35841224382122166547 -0.0087978851169627590029 0.20987816747719897914 -0.078134843323661246073 -0.33717447087361146485 -0.1835028086671512404 0.25220614175904632059 -0.41984354860413442001 -0.2356016186834100079 0.59328565936076216314 -0.31242807958621565678 -0.1737381881913327708;-0.19032743846660557518 0.24364985320746612718 -0.34427643866106300008 0.48829214582817143109 0.19071284876919011864 -0.46947325944415019272 -0.07615941513091249726 0.066859759899647069892 0.0070322362080145290816 -0.42384103316170229636 0.25537247569726817531 0.30868878742748329103 -0.097470918948548729288 0.35708613337139294419 -0.28509063604719314666 -0.37343715446625491694 -0.31341564822090312026 -0.34558687316549607793 -0.47860921353962077029 0.12228294022721372669 -0.11272352830351900499 -0.38749390627914220842 -0.6763571151288680916 -0.085605312742673189685 0.092512824589032274791 0.52002585657888367177 0.19465150926771046525 -0.25918718702829884881 0.038154310267038228643 0.43499088011825703948;0.028562293732272227981 -0.19132130644416081577 0.35206362442352789888 0.18255392261232891715 -0.0060996455451444789309 0.12984880590386690957 0.49928603751835753943 0.29145542628637255422 0.24262323740945818118 -0.096821500989314565611 0.36518932113108398818 -0.087094501885741401614 0.31367585325608049462 -0.40367760734373903109 -0.34121171980495229592 -0.14329027093383503444 -0.0594055619564795509 0.23441953799647338719 0.41259826953485501111 -0.17713049254315069159 -0.13003454127888980363 0.44156383122867931545 -0.2173575169548473407 0.16965196905574658759 -0.58366566631992478076 0.40656385135834055555 0.10053156005339818069 -0.33200771282058633149 0.42717930429094902456 0.33802317011840388172;-0.055085080323672361291 0.31679702993886782458 0.30265852860505165767 0.45509446810566861474 -0.36322416421186226598 -0.39319188811716054843 -0.48308300440701329448 -0.2055017026564765481 0.020748450163319817618 -0.21605274451072156716 0.20150125323582770975 0.34175475801633664608 -0.072219293961737957011 -0.50895441186037493342 -0.022178851615946629933 0.089022570235857315102 -0.37405702343111385533 0.037844774920888814285 0.38336910045191402441 -0.1587947696715058532 -0.44858841945737693013 0.26172914622467846613 -0.214126576180562328 0.17828969512093867378 -0.35812992427495465853 0.35982575417685674912 0.18621257897105766843 -0.1387652291017148487 -0.26293020858557358821 0.2047979620340496798;-0.40995701116555749444 0.06147372112377461062 -0.41268150213683507666 0.26415785981756811918 -0.39122893172361994374 -0.21977126338153793461 -0.067427124090836842996 -0.35835728156034224456 -0.37010834867911296397 -0.36471367666808929275 -0.091397128293144738742 -0.20396893517472680646 0.16297470444365758091 0.44198149260652469517 -0.096778851861383533017 0.01832748907770780436 0.36845793920781860775 0.37613569321213446983 -0.35452321922244767194 -0.12828517602005784504 0.20113451309445368187 0.54029095293231133024 0.41294096057015516887 0.034101206914942824855 -0.03809885359884194328 0.2045933736766074873 -0.45957067286247349491 -0.042995834075647644534 0.42269717392883815466 -0.041668093430210384476;-0.15140311224682331814 -0.19428704151342982009 0.072099766125900285885 -0.29151588249081261672 0.3829480399741950758 0.32534590920732708863 0.0046767441563017224729 -0.4388715508324665393 0.34812386682743573507 0.40178713431135842926 0.47842696702204934311 0.22840074034630655775 0.3596578650060258675 0.025270564297973138052 0.13571677116642330563 0.38432041404138422847 -0.36002311371065975898 0.36877409901235480572 0.20929275610296127486 0.08501973751196179041 -0.15003109002948403217 0.15765872174997266897 -0.055439557373550683861 -0.38969705095135920292 -0.28097165908935906042 0.53918887432513318281 0.41768319253497215859 0.20864835783944632452 -0.09129117048127571854 -0.0041350111795463743644;-0.14309020952166362495 -0.34720210596111900081 0.21509746667770290873 -0.446556343208660389 0.28950998109706477246 -0.31400489972611422829 0.57700468575587171571 0.12308892026638303119 -0.57012684110995748288 -0.0098263717129147866436 -0.084987193784908557359 0.17906343647539749164 0.025206108840997620141 0.28574680916461869806 0.2521706043820258758 0.74147188758629700711 0.095706649160915119312 0.069844832070715040517 0.16015052635268431369 0.20568611468329653369 0.27239635737328876663 -0.21256044465609205685 -0.15109571452872641584 0.089770425076802745634 0.68300563889072907209 0.30868368705027798837 -0.038368937975507298732 0.13545063006509427961 -0.23874715728197223874 0.35531221830971237985;-0.39244421745662028123 -0.10394805870526974134 -0.3742181548494317167 0.12136183438460723671 0.31187966424141277955 -0.48470860526580128447 0.4721746158419463657 0.24880447260892213368 -0.025128861996762209829 0.020263160499672902559 0.10895699754371107604 -0.079619369326813876908 0.4057787167929374772 -0.39471161661690151723 0.4368213842942236802 0.013493195747743874993 -0.10087335926853861767 0.25696730909819531785 -0.38572814821549750164 0.0079018272315505497239 -0.4755266319328874669 -0.13203263130828507554 -0.373735793039996822 0.40562358309662605027 0.5180002461061070651 0.16225334281200351483 -0.047758347855537328086 0.17912965870990088524 0.1324528983610601951 0.031870819477287294641;0.12466056107252614094 0.4696195424848828015 -0.077072319936079061731 0.18261175205857643755 0.2793127530267678349 -0.041318384997842613759 -0.1429561397869308359 0.22525473728344810875 0.17949226249200972427 -0.44008248626873319731 -0.20977224306175673574 0.13327549541662170318 0.33877859108911456687 0.041837930385430217861 0.13173074581977922692 0.040513231153257875383 -0.21285918531632525008 -0.29437298571928810498 0.25402927811409381498 0.48400018637379710329 -0.21710656524199647976 0.053058189097355323849 0.16890270643568955355 -0.45166336511637533713 0.31377018844227078098 0.5502562195193125838 -0.52128638986251263354 -0.43273455219878703693 0.047139809095827406304 0.40448107245513476027;0.43181079357162488463 -0.22945821660399806641 0.27493057119893554718 -0.35287222376911692168 0.23665045532001852124 -0.23814399920996009996 0.48988446644624528137 -0.2008682830607238512 0.32375404764099974253 -0.41660702849091357791 0.2036299574866423101 -0.32662859295602619802 -0.27730608832978947964 -0.55285395380968993528 -0.23964246216029339021 0.10262197034983142063 0.1822935050141066271 0.18849359699961507064 0.13894129186303105783 0.075119411900764238021 0.4181565466928842123 0.11326422140689464124 0.34531328670783295598 0.14630857798435092931 -0.61224800350485764078 0.29750520722940015927 -0.08905294133845036153 -0.25496772476203166669 -0.023994267406174853846 -0.053683963349238569829;-0.46007816125687744924 0.32417509388823001482 -0.062091220913663709713 -0.20770346256571231569 0.047101351062974992912 0.11437466955347652675 0.067685816031343659649 -0.53982105777554645343 0.29318666362152989713 -0.0049992688345704607705 -0.066621185301614718743 -0.37566110377737826909 0.35983755595192773447 -0.053614376716812822687 0.19529397058815745059 0.20812636230148900962 -0.15746639348016544524 0.12120806157388414048 0.50511682712983962951 -0.19485017608548121926 -0.072030538620494855007 -0.42687629784259822907 -0.45345343021450074117 -0.16885410533516090337 0.36449695477983184988 0.21765957911028252503 -0.49730772313389526307 0.27792633591847709651 -0.053722218556582046478 -0.56316131228591248536;-0.18216310760549661585 0.32268489493714158645 -0.37068788510017486315 0.012971289323752091538 -0.13521731072192280654 -0.34804317884074936762 -0.51888088141142840737 -0.28465127845197218948 0.24759966988856715875 -0.17446421320522079168 0.18140617757044444347 0.2296730833494765589 -0.41502155506949883756 0.28713929511459740374 -0.17307554325189317135 -0.27321520028807527725 -0.5985076480307218727 0.38630717926762292436 -0.056010246448310201106 0.65830819713523824888 0.27030594157006043732 0.26336836436833366282 -0.38493072638571945721 0.48479838985045647926 -0.13605032548619352961 0.14598754194125018735 0.070516780884633450954 0.52313464136693066386 -0.26117525253643214533 -0.32823687326500811112;0.095063080279159370423 -0.016247504335438738704 0.26148933313074868012 0.26020039298072400458 -0.2329040307017916922 0.4479155129911268074 -0.037086220095944331943 -0.39987682950263336856 -0.19921117989327574715 -0.19156760438227496413 -0.50526470767601872058 -0.033354852803163338726 0.26403479816601715946 0.020429811728163774914 -0.10227389524371836849 0.20192712567104273425 0.1780065774167731707 -0.082669767641155453286 0.26656603622427060829 -0.61781225445909071503 0.27227565244065488059 -0.57339663360744252962 0.2231614721410545843 -0.35018916807888283982 0.34795412394871827466 -0.58623502643174474347 -0.090637969944354246365 0.15223234384461084567 0.4570542624206965221 -0.1653473153955000996;0.034955062519027045587 0.20286300255769554313 0.4185111701179428656 0.090713484611895517373 -0.019248738613426116806 -0.25365111177688104416 -0.51117307217692942167 0.44262176912163736509 -0.45287769756287060696 0.15159764416336921067 -0.37057701999921671687 -0.42991651295233163088 0.066575953520022920773 0.020242315106454331769 -0.42316972215569242932 -0.32770013234704975513 -0.22238190291043233304 -0.38286102490941026355 -0.24562548805408446206 -0.42731376631641432295 0.029722357880723988127 -0.22545643091356898369 -0.41303244817107021003 0.2258875978116154648 -0.29511218119087634371 -0.19949332878207309827 -0.39753591006927996299 0.033138642073345783712 -0.4093169312576475094 -0.33550044156783015437;0.55556986953910958427 -0.23646738515732321217 -0.071116327981310775708 -0.36341357608258362255 -0.4913440687886194147 -0.0559903494046177716 0.26556061680369419387 -0.36635831903543664145 0.37659709678595854054 -0.082704025816406845362 -0.38139509439593677342 -0.023896909374531156989 -0.18970192395543949981 -0.088499079724698836991 -0.33430919225178468146 -0.10495388500545059507 0.067734184236446129401 0.20555728120269670112 -0.45618099437910841765 0.2953827399849145996 0.24208536814983813712 0.30589388422374164112 -0.12369808191473306846 -0.36340734336566726803 0.047050566198186233313 -0.042884756694729776749 -0.16583251875198729008 0.42922355564247388626 -0.055945695265449880973 0.30171444326692870019;0.28385007700641778916 -0.19770471920489621209 -0.39415207034717636425 0.29676908879757274429 -0.26828052787091111187 -0.39589764451450992766 0.32142874073187083228 -0.71605605829638030446 -0.019531951428683344552 0.23408293669252616676 -0.41506291058115901693 0.27728586169306274067 0.14058893689500345792 -0.33561234353744501258 0.4476671729817833234 0.29052973561567768668 -0.12116902550298860874 -0.071198177911522150807 0.1000099692965391307 0.42514069120950048752 -0.044929790697846742897 -0.076862017708736712907 -0.2172610607776761793 0.084363561022159985758 -0.26180336551400867906 0.026554861664090670392 0.059132550880973092089 0.31329300418871669498 -0.42867586431799886704 0.48420772888475949181;0.15916170516685215763 0.2359955323011816708 0.34950846136736984926 0.032306448591334586962 0.18484546407166341231 -0.011116306852030815103 0.040354535049582876405 0.16301480887688107879 -0.039607597851694396895 0.30944664512845193594 -0.31827773332977155052 -0.19755023647600275516 0.24851147235421355841 0.18141088388424425615 -0.33425594560936561228 -0.062817862889379322278 0.25909367274840217066 0.36454044434515936457 -0.095663314821263487064 -0.12066530898216762391 -0.23055201997037344519 -0.74400077977968825937 -0.1307304797530043361 -0.22624646482413210413 0.64460153024580568726 -0.29316074919703416501 0.3324567944731227076 -0.34931327156869101946 0.35259045140246747518 -0.52751121336850304022;0.3259115356819682896 -0.50141006824192291269 0.4510018104726301047 0.079001424875331280329 -0.080803399560736705043 0.3503156420344830102 -0.014159588462665404981 -0.42246747498804299026 0.19689872107842718019 0.058254902075082423685 -0.16292652472532831442 0.24081092167582046626 -0.015769001579359228499 -0.2121835483201347794 -0.39444654423995484382 0.39047214508564515034 0.073915547550289201206 -0.3096590537770174123 -0.27138279747141308418 0.38160292256943001421 -0.24468153147036836303 -0.27488929341682871721 0.43453781406844516066 -0.094156623512195974923 -0.3247505466051844869 0.36410471359138313341 0.22351998851037688243 0.15528016265912100713 -0.50092505869712145028 -0.3603845427937262258;-0.38871814949669636352 -0.29942683304010009326 -0.14039672849626030904 0.031399620919232235083 0.027741113890026501687 -0.22047407298673521447 0.36117822960227102813 -0.78440102729978145035 0.14976202978763597518 -0.28013377432900632424 -0.17175320421959247574 -0.35687534589306552091 0.48512977292554521069 -0.22329439111161042408 -0.055609173914754270185 -0.093504005863560446521 0.17620046649232098956 0.42655729384826862605 0.39805918713364912831 0.29596524093475617967 0.32040649018459627095 -0.074096629999738108929 -0.37046245551886075598 0.22070499048888089777 -0.29657420751022472993 -0.32332961743280191902 -0.02588685036800629849 0.25314592679115238694 -0.3066193282255664232 -0.46786293578597976106];

% Layer 3
b3 = [-1.583982469595364817;1.4821573369970306722;1.2753948984030827329;-1.2409972242687927757;-1.1190487407220646165;1.0537837668474498987;-0.93379268614840416074;-0.75487983417200221758;-0.72341199508943254681;0.51166200836004005481;-0.51172897724079668968;0.34273405681257401723;0.2215276429089321486;-0.13675621064389439918;-0.14108271568263144879;0.044954055084525719466;-0.16797732195331829819;0.26801373219779250912;-0.38402574250191334748;0.45978505687267567925;-0.60087890509965224961;-0.78270032313394755086;-0.75753306129363140453;-0.91100370856112911078;1.0162729335770164241;1.2081520257547944119;1.2512189268820137489;1.3348944794491250931;1.4841608412993996247;-1.5662474543565325646];
LW3_2 = [0.082484881089705530677 -0.15008052430840565505 0.23298780341479885525 -0.33940474378468987737 -0.074522124918492943513 -0.14511214179104300892 -0.52567225849833931761 0.39401353959481705269 0.30025392046604032492 0.02845280601876685328 -0.40002519900401323216 -0.42903559211568748077 -0.17852130865989782049 -0.29792418826606287263 -0.23968554805948527608 0.30128818655054134812 0.50211267340546672511 -0.090362596822325960688 0.25925080546478224131 0.40805247517637027732 0.095507853467538969539 0.20530928370134959859 0.34256008794427605935 -0.13681455653083560153 -0.31898003027150040323 0.050594606260905131134 -0.28233076005852919543 -0.31509083120640885012 -0.25279218700481947968 0.25730903195697707453;-0.047985072337241960194 0.18827983280407772915 0.44471727912592395882 0.32916723964759908583 -0.26701220614904030981 -0.43739027987616696524 0.22360537858303058956 -0.25404492138736711748 -0.21026010585718488133 0.41343078806814381743 -0.31458464274249053894 -0.14221137378154471986 0.067414869354177606176 0.5862005051618230933 -0.24829489739720222996 -0.37172778488534180541 0.26057340916556476218 -0.05149068625587525927 0.097743247826362941733 -0.10082549685144216733 -0.0047372354144336031173 0.14404217121808754465 0.31460390614559363698 0.22665769942956498495 0.041367561608930104866 -0.10396955380575227668 0.1807255412406281736 -0.18016404743680744516 -0.33365608218467684987 0.58050389443320660199;-0.40287924626774929138 0.51118101153971207129 -0.25444970895092128282 -0.26542907727318659772 -0.33930311283589159599 0.37005976696060566278 -0.3991736567736199337 -0.52936064155894979599 -0.1363397804646008793 -0.19203533917047671542 0.31985444846820015874 0.020702423806555611541 0.28510098012021545255 0.064646232397518405 0.25315332498697978858 -0.25094752282665289123 0.22750477628199208824 0.3712550248563392663 0.38032329843455808804 0.34513834758968681138 0.10499878358132351541 -0.46444382457092558969 0.22128052208166062997 -0.46930139590071462408 -0.32307555505583890332 -0.067667907623898973513 0.10112431622620690619 -0.24461130445911050124 0.46189079337661664848 0.25610328912535795798;0.24065901216377619254 -0.17138577765938631248 0.44732559894065976325 -0.43233118631647848851 -0.24685709208923384272 -0.33570696407398514793 0.38667836190725535239 0.082876412047625303003 -0.17429219236076884392 0.13357708776897816993 -0.055566828366129132621 -0.31159985516167942876 -0.28123787454799153984 -0.44234356570121891039 -0.27053447841845273958 -0.052721985346221252045 -0.46911105876822684069 0.14160228060654808657 -0.28415125592360779283 -0.14445358936283372864 0.20722489007752400991 0.021012551186048316482 -0.23794066759383789011 -0.36629707184587589897 -0.36572040941639799572 0.34874035505204398211 -0.50433121443933492944 0.073441415730697359732 -0.19250136101794743104 -0.3942586579520298562;0.19361537627032454623 0.54749996764515584946 0.16768576444366736777 -0.27975254054469300691 -0.19600286457663254613 -0.25115563695771014885 -0.47058713771918442292 -0.28453863666705264679 0.20718290781187637117 -0.043134565826797068022 -0.24880057086291534896 -0.41402681654367945452 -0.01117274948281689155 0.13595129150532617168 0.31672605417928612059 0.33798604123678271938 -0.14337729960800413287 -0.2263533114759566367 0.21765150706267527569 -0.4942204794724043837 -0.13100102155339773957 -0.52022751861899185766 -0.45555678473047472865 0.089303529726455624371 -0.083995133043104575066 0.11334727607962820362 0.24182778181456732192 -0.25190565062635672522 -0.12982002933287242752 -0.39717859796601334699;-0.35384035920439810274 0.4216520416093796908 0.29897150154611706885 -0.1860007804628369954 0.64250341055660109557 -0.16921040358590089259 0.24312713576748118394 0.18073485975014808025 0.34909219929441065444 -0.087340565742021411544 0.20416695209901422614 -0.39242657716513029698 0.51921665935615834986 -0.30576948273263476752 0.04825474097208028168 -0.033324168529750092249 0.085162552365203827986 -0.035319278138921397781 -0.28130931935165298663 -0.20741412732261588214 -0.15694851037043841546 0.15386763164974981422 -0.065955208130040729464 0.41990648903833283079 -0.16545041197738738492 -0.44944674023143410535 0.17843671056349377779 0.39908345475668122182 -0.35918213093208117836 -0.49325795948117362455;0.16815218795473585445 0.27944606721235309976 0.15711282211719410085 -0.20448146714578541161 0.35479763693013083303 0.18671277402719058114 0.34451788024710683356 -0.25482886011424454864 0.20390380461482482399 0.1714149948998110462 0.21836004691853017068 -0.022573105634687985754 0.36660744848556331421 -0.037438994621863841417 0.13004367638855965361 -0.18194897888367142502 0.34624596311287414441 0.21787885045963323316 0.253833530178841138 0.31332284183688807744 -0.043753215950456322836 -0.25524591589828127258 0.6019033425745090593 0.15504026093623043958 -0.43450642040163089952 0.055734494525818599475 0.44864012932652103105 -0.55844067336719449557 -0.34557728853968266991 -0.27998153929362773473;0.086492395311549979953 0.32697765374928150495 -0.058097027711168064412 0.40077813141020307564 0.31127661315487276106 -0.344225623201009856 0.26007173442252246032 -0.25547168983172136025 0.0066623513093418780182 0.36328000455040831973 0.3426899345944202091 -0.037762582724265032763 0.55629544505888228745 0.21822333961339102082 -0.67596224889878930853 -0.13991205107749121739 0.25058323351162609116 0.087848500283152955448 -0.53997877008798489396 0.25443254902547723928 0.25071651919478826764 0.10056284272329776841 -0.50879286362946851696 0.39662858647334570117 0.18904675210219989978 0.39092071696843588846 -0.33154882649210787315 0.30866350464104108653 0.039815772417393875682 -0.37311364150841203058;0.27804306224132080416 -0.26612042976617833467 -0.31444048904040455827 0.37678455232133278852 -0.28828978977416952478 0.32357578448018015083 -0.11703775248005153509 0.13294879559655092827 0.40620638792170277176 -0.28453591729093757889 -0.13122422482737858274 -0.48265744406719834902 0.13480074719660903315 -0.43934147397437200988 -0.056738488426267788545 -0.27412897298242960842 0.16616946451564776344 -0.013572377004674876858 -0.11772650094339923155 -0.16213871805107832325 0.3765624388940911893 0.35497772396035781606 -0.20824267940680774025 -0.49434344287842574284 -0.19233593183450548025 -0.23561728026056297236 -0.29088424823717135004 0.050080639946340294033 -0.26166273376497400927 -0.25063271880002524483;-0.25225314409236332391 -0.80431548757800108707 0.1106762808333497522 -0.40561588997368569487 -0.60593670329054216683 0.33140534984833008858 0.36532715992951964035 -0.17380187170742153469 -0.27047576794711686299 -0.54295032092012507352 -0.0017350043681759626506 -0.13643213832973380417 0.15778549031205002517 0.47804124745571702215 0.31120360553545772797 0.15716323900908824029 0.19681062063754803382 -0.21697325680193410569 0.25779055557111729691 0.1835299021358201832 -0.33220238710473404264 -0.065755520441090106742 -0.48227848455676558537 0.074320333859101986307 0.19934936846360809537 0.056236309296740470687 0.35013440118588379235 -0.66753860832079503496 0.077549986645740559554 0.31244972891354810818;0.29108290273268977444 -0.2100617763355365486 -0.17518902135903216544 -0.10823208211666579537 -0.00096728643723005438941 -0.17385805081501440328 -0.047116622848788078382 0.51701144573241231139 -0.49984216360631661402 0.40693331547160627171 -0.22843623974244775532 -0.20341751304582986193 -0.0050772014803255457668 -0.052274155847554855392 0.048831409402876814474 -0.30274700212975730329 0.33541782053977875488 0.57416011384753729008 -0.38991733984806770108 0.10911477927085101725 -0.29684819310264637382 -0.055351465660251966683 0.47250382559487130729 -0.19035566992084954063 -0.33348190548224532215 -0.20193654623822387961 0.18296145202095701054 -0.0092121435226318829775 0.29906643564253915235 -0.2973924759295265563;-0.3564522174975926494 -0.35837984904776704065 -0.0079719673339290718361 0.3191803364881792282 -0.31427341821167398273 -0.17908105112039232609 0.078039465771229998836 0.39161456826146273658 -0.38589907473309720265 -0.30408588580898704423 -0.38408756664568621808 -0.43066964054858736244 -0.43594855576775859429 -0.16509042782265928584 0.45816920201755223507 0.17207070546153926949 -0.02532921807139756204 0.23554040055251587726 0.23960243914099207951 -0.39313784668169438064 -0.34845496401746484105 -0.14366130507981195175 -0.0090485527184132608092 -0.34478422812832515421 -0.38171643829212026366 -0.31845277014539558058 -0.025475944413160148821 -0.26909075207383165163 -0.12247416761007826058 -0.048471642542270952647;-0.33207951288667264533 0.20729060665111365136 0.061733154428327573215 -0.32672069792872682203 -0.36167649222797010333 0.2261904091840901132 -0.41946296107970032496 0.27456390692533877429 0.28761866232307498059 -0.54608135897716614249 -0.31337326427386597016 0.12371801035220431064 -0.23760702174725825686 0.48218297494649342561 0.09220357777382258424 -0.038739038669218767152 0.21260040623280401784 -0.15872997098180716136 0.0066125335681196046114 0.12780762914980378642 -0.23693637052500099438 0.32737739285671296763 0.13078370240415698733 -0.46871786438776474881 0.3241085658185586249 0.16514670360909211588 -0.22628284848791990758 0.06701976444268362143 0.34964813103153341567 0.39076722416802478488;0.0071701868159187911317 0.70673528438534050089 0.49225987237252671891 -0.39846202921454298984 0.11132008797320037952 -0.27796523098927344853 0.30359559805521491027 0.34187449269734393464 0.40932606946200794651 0.1223706037828137666 0.1631048795336324797 0.41768656121256048097 0.089268370668471527796 0.48956026604512942191 -0.12932022939244397497 -0.26834634172270632746 -0.34276775225177658069 -0.46113470337014650369 -0.22810156361537980985 -0.13621421952374729303 -0.47487635062084682103 0.22619708420873876897 -0.51500413466377836791 -0.30164375234782092594 -0.24254973332859341983 0.09875343464827676665 0.52917254481007269806 0.040083165985469799975 0.30349699738646529479 -0.17347615013356096347;-0.058778083025428674857 0.26404390622524498422 -0.42228244689624350183 -0.52988285438370119618 -0.12721675618509742378 0.50115955740239814808 -0.16688816357949273761 -0.33630034741432107692 0.26618334047708608336 -0.53133750527009682152 -0.45117153752267469269 -0.2075457297633462872 0.18804688764376092935 0.12733020487803745069 -0.38759020290190954183 0.07713921648780028284 -0.19372581781853176475 0.3245577558610564517 0.13412363521112236064 -0.34289846632365389434 -0.23708387880554052107 0.12268650928466467986 0.12996367876846215417 -0.16995250550118526367 0.099682694715095401805 0.25435471870702108799 0.38929535777255364071 0.11476000585380649599 0.43805188768517644426 0.075663067646114384734;0.31264157727348279581 -0.052957963603386420948 0.47124433946442351173 -0.30373665568883839727 0.23542285455087216817 0.11947706503936328382 0.38280240139043697489 -0.36995690327845248691 -0.24340006116114987211 -0.47111549349251641283 0.085923982542896445991 0.27764207091649006909 -0.052307190604374859122 -0.13612115567484259215 -0.004225119305094643396 -0.34292298780183799733 0.013938337874645980938 -0.048227255977493770078 -0.31450844850454795498 -0.45359253577671465596 -0.41763974715496582357 -0.069876016580523198085 0.29825447527753951027 0.45852234087860987977 -0.22598957565424879212 0.27170324455677336006 -0.19525582189820012147 -0.25647974367097881032 -0.48841709607575206631 0.17680513191379501614;-0.27198294373661641155 -0.22527074594395921081 0.30620755612277872348 0.11870189969873679026 -0.23851303185074232416 -0.37169304259598751061 0.27730646278356468892 0.14274632326111838521 0.19776474111408229306 -0.031436677842546480177 -0.35441630998995560242 0.40677294417370424284 0.32766082480247166187 0.3837556030336151669 -0.35915195900000235207 -0.17957627594675215632 -0.39733579298743565422 -0.015773693308616273251 0.22710777207152843538 0.26854047230620353703 0.017607719706732756493 -0.21641115678368358366 -0.35795429968623093675 0.3240212071872864974 -0.082699097444887209596 -0.11893254524142853057 -0.42092089078738992303 0.35381099863566234376 0.098071446011587612435 0.37644613174320135096;0.376060088681952287 -0.036266526268483464945 -0.11123508491817535315 -0.35116214735707096395 -0.071391892246841351377 0.32512423775779258905 -0.29678992254527047923 0.058242859047057574107 -0.344030930795299561 0.09176087369340725497 0.2378214400104478321 -0.12409386563701473027 0.51406390476865193584 0.5286373112622673176 -0.052071308493201969025 -0.45508476811866349632 0.13065946075787990277 -0.3965174138346459487 -0.1756619664657540214 0.3615513503729446132 0.38762446062906402711 -0.35726639421149031239 -0.19309285719371194201 0.10629216208257753762 0.39156950812715751731 0.0054285248951026991021 0.50352418215351713027 0.20118969791091451116 0.047229813260971240108 -0.0780210128766681138;-0.39362887670020330066 0.19218420187336668348 0.37958187271390164685 0.21028182964040276204 -0.26088378289372970986 0.12763396653511616119 -0.3161159943662766314 0.39254998221101522482 0.29707947910415594128 -0.23279197250471622693 0.42212501575831845591 0.32554149282897948403 -0.10058223179007846904 -0.34830091036622601308 0.11641993968201437559 -0.12366305988945054672 0.4398672384274163738 -0.40029922027868375389 -0.40056939369819194452 -0.52245919581028577028 0.32656014261683585786 -0.23389386396591610451 -0.068600377886347610468 -0.075091755237674223666 0.39071145663052386787 -0.27999186998172825858 -0.079566194630751152506 0.36887912401880107449 0.3406744227870857622 0.10008014786390292961;0.0096346780769277183543 -0.16877314757535127887 -0.31297276191525202904 -0.12717027662455182568 0.052751337776962788084 -0.4621704670917504143 -0.42058229290109166998 0.21741671826861933003 0.24362307849201289556 -0.14534459976163591199 -0.15743465917161289513 -0.031501470815199231201 -0.03615690056093826682 -0.38148134347767903574 -0.50303321655584309902 0.37538525641858500048 -0.44687658723321410648 -0.34634219411248040599 -0.18920191852110090913 -0.33999310595771853327 0.027975783876740732692 0.1301796932991452771 0.10055601387093725252 -0.52053098701494493472 -0.17291663997666803509 -0.4910863604565566809 -0.43130660257815967018 -0.11281124402698256004 0.10621397321455039453 -0.49227802994613656384;-0.1807441282307169772 0.48780210429330644883 -0.031438034923643394525 -0.11587387295757020644 -0.35418699396638386734 -0.57881253220215245214 -0.27854274816375979018 0.4694553732251894318 -0.25955524863763917987 0.338052781946938663 -0.43297060455527752731 -0.34053922716677903493 0.055951500197685126448 -0.32154262504802133549 -0.40692522605669312341 -0.020054812816056592079 -0.37798260068805089595 0.34497234344579497112 0.39934202944605134977 -0.40483798554029132299 0.22091755562306850114 0.16574048791547352222 0.58470227084098547188 0.24663764577602451111 0.064085874206791432206 -0.040354841040771201321 -0.13002673045701693133 0.2570919303520141086 -0.029979942896951515541 0.17698011197581636766;-0.14435627325114780417 -0.45936236155226378708 0.1380434086029140861 0.41538464855009671339 -0.65801220034207319465 0.50033047743667247165 -0.25383753262050495758 -0.33836224351591748238 -0.0086424182996526800749 -0.22171771472448126294 0.43041867292227597996 -0.45810367702542265089 -0.43340311157121252927 0.011157812914344792179 -0.64656166458593122837 -0.11476880979145660799 0.085021189370272656771 -0.41629212864485853896 0.18657651357810858816 -0.23103964435906684805 -0.12579534131201811076 0.55916699857349472236 0.11844392892949738572 0.095738859800185038829 -0.39659215221216942426 0.34711741247549660061 0.62517780928333988033 -0.11859701382043551232 -0.26455468843447355054 0.50886954793398864183;-0.36213299209093041675 -0.31926772258877211819 -0.1122936252168904997 -0.31425931451960098517 -0.097604973959833002395 -0.22019691776227448554 -0.20738692897956748085 0.28512495556194761281 0.45337374241174088763 0.094519004105342752098 0.21452916029740745629 0.31924765546817873707 0.34052110333051421875 0.19481856661350333004 -0.34120602891069717888 0.37375744834307106368 -0.22501769826290962673 -0.15972795917220172779 0.2342108829731134878 -0.05832469017194019667 -0.39578397033575968278 0.0058700307617014302677 0.3600819538626936489 -0.39542334865299882951 0.19798360700546119295 -0.29193262766137806352 0.42750336615209766356 0.25861419953449388265 -0.036124150581448050135 0.27782051347826403065;-0.21803855516311509977 0.31921741573976475381 -0.21526283764788958774 -0.2234272455909410704 0.067264389681173736291 -0.42205739067056502467 -0.043892772325710649461 -0.19800518279855452985 -0.29106823715977159228 -0.28901306919253044736 0.26587048413412778247 0.41468447536432012646 0.22425537969529185656 -0.44201178719672745698 -0.086248468930470792437 0.11118172470345245861 0.43345899557235495481 -0.12213430861044315134 0.43217092879746837886 0.17647718795783876033 -0.27408839479823876584 0.40239282027997969049 0.3152083169514068306 0.21949909387123872628 -0.37689424315161507151 -0.16848453042648406375 -0.37019228989725755374 -0.43709706095105999024 -0.088460249368461807418 -0.11447118423927907238;0.099818940001226652559 -0.067146601021075544291 -0.39102997220478674656 -0.11704033836869576213 -0.33776042580981791019 0.1120431167282520124 -0.23918002700837753816 0.097912515216591666789 -0.21018618137074351893 -0.19493209185020249352 -0.021990302315728262744 0.41101012597274372284 0.18682585672741272576 -0.31345664403851919433 -0.07158662903501387953 -0.24654941177752068282 0.19122593358866457613 0.21154026929993088868 -0.078244278503583633566 -0.087011637349334966518 -0.33958974259913732308 -0.30206777065604684118 -0.21769007849944488342 0.35496255520807179495 -0.34440696333181552991 0.55743228807386502321 0.62163457880438155456 0.57126723466446327482 -0.44712440512890183619 -0.17682705712963933675;0.16573928836383286511 -0.18379557460706957839 0.052484450206945920669 0.23530314304179436591 0.28055720652860399733 -0.47617892861235056046 0.38257108474957729483 -0.086727502728175476232 -0.47022499648060417377 0.37458695969493699396 0.19065190777460758187 -0.063062265579565290885 -0.13197354021979706973 0.16060015847386507892 0.27925479230232552741 -0.39653892441952709458 0.28555298143619306517 -0.41525886625593438906 -0.19062097800522256885 0.33619021398094223185 0.081704913731598952098 0.087175263319996379452 -0.088770301720585920169 -0.35916120192565187397 0.48902281760926780141 0.49701460086345994327 0.17023396498934331711 -0.32943977775769622829 0.060451709981276524619 0.13880717180414275935;0.36369632075431113094 0.12035148943159947044 -0.082211284470714227068 0.25098418141810785453 -0.13001215051786824128 0.031450000860721451235 0.11288044722799438213 0.046676118774363582753 -0.35358864745308582478 0.37793287389289909051 0.10118925206353975021 0.39746017234033981236 0.018161144097100134082 -0.3823668036181012142 -0.25604496957052647055 0.49099189209174110005 -0.2256456743144109045 -0.44460800537068856375 0.2880039564871399449 -0.35658098376769542526 -0.3954762419362386483 -0.3813022350218890355 -0.25671663021861834686 -0.014038126097423773639 -0.13566789944802543078 0.33557927167537088264 0.37086206482030226184 -0.30515421843151480097 0.26398041661722793094 0.16071152764331916862;0.075260904981688928062 0.2816704913605809768 0.064055771976252520727 -0.43072315129062049843 -0.57255146129109846242 0.03062447312433912161 0.26474786558932628111 0.52823902435467384731 -0.47814309289277873161 -0.022539597287402773212 -0.052024622173102177958 -0.15233396265804910463 0.0045200390668838196645 0.49248192023458375877 0.4663554186151258607 -0.005273389745747175672 0.033085411290155325448 -0.14946170859742785586 -0.033777322195683072426 -0.44540283069489494672 -0.14980824014111510101 0.31820214566220006436 0.29977483407469790455 0.4358867108400312218 0.62774311126070547751 0.35494885924781355291 0.32454630680683987931 0.073273681584902591868 -0.14004853695409996694 0.46170017931185969307;0.15807405172620772604 0.43160482692512680547 0.42727741697971338697 0.28490561533118924364 -0.11364258420282032092 0.29677147840113204946 0.2394752536959429412 -0.064261592312220255918 0.18568517994857006159 0.34420551761130613322 0.32373041448174300072 0.19699039809210175389 -0.27770956630827314804 -0.33593013518257980321 -0.12560980854509512517 0.41210520834851604999 0.36860188227460671806 0.42274932046394253504 0.18253903466481691265 -0.2500379435847320253 0.097105501840463986918 -0.32507835730098166849 -0.45233167524013240257 -0.072378678239063798383 0.089904549788827586854 -0.12526795156850106805 -0.35150829199391309121 0.27629797192443883436 -0.14323749794032858418 0.39270070969612191902;-0.16826873497917960165 -0.18889293293756700964 0.21934633873774608825 -0.20155711205833673483 -0.049233403759925423171 0.13361027459561758413 0.15619961997162948308 -0.594480444093035576 -0.5135455477017003556 0.22968003527159183697 -0.4500652981625564153 -0.060187822238412624909 -0.53691617065184849 -0.063175929206751496592 -0.56418201842128301582 0.12820555752861223509 0.48762026671826896873 0.29720741572518133422 0.0024667551404324609618 0.022839112082025599809 0.31188067174162514839 -0.048246285622296589124 0.23714693776456641228 0.22305412784022543571 0.28810111166024221507 0.27770130317483443516 0.36657902751232174232 -0.12513969256783616379 -0.076243845595227982548 0.48879417384590823081];

% Layer 4
b4 = 0.028162801135975315536;
LW4_3 = [0.76296942349753593682 -0.60081107738822214781 -1.0070049051607259383 -0.18928584213972432515 -0.82955244294369834268 -0.43022879165153926628 0.37018537082731789445 0.83118328458788448554 -0.23002841201971691021 1.1647910749434347011 0.13915414557227898107 -0.1378487363647208086 0.55786498271827189566 1.1986761252427695634 -0.28181788857519368685 0.15597342845477252249 0.18659362215014188568 -0.25240285498099734873 -0.34948716054430128963 0.29000097707381489176 0.49498476528748186487 0.79293538358214232797 -0.39516507437516362744 0.013511675012670200727 -0.26657595462348959714 -0.18671503485262022637 0.84548277066167920601 -0.63446438542459182575 0.1190797877966587176 -0.65008095646870978079];

% Output 1
y1_step1.ymin = -1;
y1_step1.gain = 0.382528974555994;
y1_step1.xoffset = -2.61075848464239;

% ===== SIMULATION ========

% Dimensions
Q = size(x1,2); % samples

% Input 1
xp1 = mapminmax_apply(x1,x1_step1);

% Layer 1
a1 = tansig_apply(repmat(b1,1,Q) + IW1_1*xp1);

% Layer 2
a2 = tansig_apply(repmat(b2,1,Q) + LW2_1*a1);

% Layer 3
a3 = tansig_apply(repmat(b3,1,Q) + LW3_2*a2);

% Layer 4
a4 = repmat(b4,1,Q) + LW4_3*a3;

% Output 1
y1 = mapminmax_reverse(a4,y1_step1);
end

% ===== MODULE FUNCTIONS ========

% Map Minimum and Maximum Input Processing Function
function y = mapminmax_apply(x,settings)
  y = bsxfun(@minus,x,settings.xoffset);
  y = bsxfun(@times,y,settings.gain);
  y = bsxfun(@plus,y,settings.ymin);
end

% Sigmoid Symmetric Transfer Function
function a = tansig_apply(n,~)
  a = 2 ./ (1 + exp(-2*n)) - 1;
end

% Map Minimum and Maximum Output Reverse-Processing Function
function x = mapminmax_reverse(y,settings)
  x = bsxfun(@minus,y,settings.ymin);
  x = bsxfun(@rdivide,x,settings.gain);
  x = bsxfun(@plus,x,settings.xoffset);
end
